611 300
1 0.05078125 -0.09326172 0.064941406 0.11425781 -0.064941406 -0.10986328 0.09277344 -0.08154297 0.13085938 0.12597656 -0.06738281 -0.03564453 0.16992188 -0.064453125 -0.1796875 0.014892578 0.04638672 -0.0010147095 0.068847656 0.095703125 -0.21289062 -0.08886719 -0.022460938 -0.067871094 -0.01940918 0.067871094 -0.13183594 -0.044433594 0.09375 0.15820312 -0.20800781 -0.17285156 -0.061767578 -0.38476562 -0.21777344 0.0703125 -0.140625 0.22167969 0.072265625 0.1484375 0.040283203 -0.123535156 0.0099487305 0.08935547 0.012268066 0.071777344 0.14746094 -0.038330078 -0.032958984 0.0546875 -0.21875 0.111816406 0.08642578 -0.076660156 -0.15820312 0.05444336 -0.21386719 -0.16601562 -0.22851562 0.03112793 -0.14648438 0.0234375 -0.045166016 -0.21972656 -0.01184082 0.012023926 -0.036865234 0.10644531 0.29296875 0.09277344 -0.008178711 -0.12011719 0.048095703 -0.061767578 0.1484375 0.059326172 0.05078125 -0.11328125 0.022094727 -0.0059814453 -0.14550781 -0.15722656 0.15917969 0.13769531 -0.05883789 0.052246094 -0.09716797 0.19824219 0.21484375 0.041503906 -0.099609375 0.16113281 0.07910156 -0.15136719 0.0039978027 0.09375 -0.076660156 0.02355957 0.064941406 0.23339844 0.10107422 0.0390625 -0.03491211 -0.053222656 -0.076171875 0.0038452148 0.0076293945 -0.23730469 -0.06298828 -0.11816406 0.0061950684 -0.099121094 -0.115722656 -0.23535156 0.040771484 0.068847656 0.23925781 0.005340576 0.021728516 0.08886719 -0.08154297 0.046142578 0.110839844 -0.020751953 0.22753906 -0.03881836 0.18261719 0.17773438 0.09277344 0.11767578 0.08251953 0.099609375 -0.03173828 -0.03491211 -0.09765625 -0.10107422 -0.095703125 -0.0015411377 0.03173828 0.296875 0.045166016 0.18554688 0.18066406 -0.048828125 -0.10107422 -0.049316406 0.13671875 0.14550781 -0.13574219 -0.13183594 0.18164062 -0.10253906 -0.12792969 0.029541016 -0.18066406 0.11669922 0.024536133 0.1328125 -0.107421875 0.034423828 -0.040039062 -0.03857422 0.1875 0.010192871 -0.109375 0.064941406 0.083496094 0.21679688 -0.095214844 -0.0007171631 -0.03540039 -0.12988281 0.0038909912 -0.10644531 -0.22753906 -0.041748047 0.07128906 -0.06982422 -0.040283203 -0.037109375 -0.053710938 -0.076171875 0.005493164 0.34179688 -0.021850586 -0.11328125 0.08105469 0.15039062 0.31835938 -0.095703125 0.026000977 -0.107910156 0.119628906 -0.23046875 -0.059814453 0.031982422 -0.115234375 0.19140625 -0.045410156 -0.31054688 -0.25390625 0.09277344 0.09326172 -0.020141602 -0.053222656 -0.018554688 -0.11279297 0.091308594 -0.009643555 -0.033691406 0.017700195 0.047851562 0.061523438 -0.024414062 -0.15429688 0.21777344 0.16015625 -0.122558594 0.07470703 -0.1875 -0.11816406 -0.016601562 0.031982422 0.07519531 -0.021850586 -0.056152344 -0.25585938 0.04345703 -0.008666992 -0.13867188 -0.006713867 -0.034179688 -0.022583008 0.13183594 -0.14453125 0.034179688 -0.07861328 -0.28320312 -0.11425781 -0.15136719 -0.14746094 0.19335938 0.18554688 -0.09326172 0.0069885254 -0.10644531 0.053222656 -0.03881836 0.1640625 -0.171875 0.07373047 0.080566406 -0.21191406 -0.024047852 0.09765625 0.09765625 -0.030029297 -0.18164062 0.06298828 -0.016723633 0.11328125 -0.09765625 -0.07714844 0.014282227 0.017333984 -0.012573242 0.07080078 0.059570312 -0.09277344 0.004699707 0.095214844 0.041992188 0.025512695 -0.14257812 0.055908203 0.021118164 -0.25976562 -0.06542969 0.15820312 0.16015625 0.11328125 0.12988281 -0.020507812 -0.008117676 0.18554688 -0.17382812 -0.05029297 0.119628906 0.08984375 -0.045654297 0.029418945 0.017089844 -0.16210938 0.14453125 -0.021240234 0.079589844 -0.21289062 -0.16894531 -0.041503906 0.008178711
1a -0.13671875 -0.375 0.265625 0.26757812 -0.09423828 -0.1953125 -0.15136719 -0.31054688 -0.055419922 0.15625 0.026977539 -0.118652344 0.099609375 0.14257812 -0.21289062 -0.068847656 -0.02722168 -0.08251953 -0.051757812 0.06982422 0.025756836 -0.11328125 -0.12792969 0.091308594 0.110839844 -0.18945312 -0.2578125 0.14746094 -0.11816406 0.26367188 -0.19726562 -0.04321289 0.30859375 -0.30664062 -0.39648438 0.18945312 -0.05419922 0.27929688 -0.11035156 -0.18457031 0.115234375 -0.16015625 0.060791016 0.015014648 0.072753906 -0.02368164 0.07714844 -0.04345703 -0.44335938 -0.19042969 -0.50390625 0.0859375 0.12695312 -0.2578125 0.20410156 -0.043945312 0.060546875 -0.032958984 -0.23046875 -0.018432617 -0.26757812 0.007446289 -0.0234375 -0.25195312 -0.3359375 -0.4140625 -0.16210938 -0.0546875 0.05517578 0.28125 -0.018066406 -0.20410156 0.33203125 0.014953613 0.015258789 -0.03173828 0.046875 -0.04638672 0.18945312 -0.16992188 -0.34765625 0.044189453 -0.17871094 -0.063964844 0.016479492 0.09765625 -0.19628906 0.765625 0.32617188 0.15820312 0.2109375 -0.06982422 -0.19824219 0.24707031 0.123046875 0.08203125 0.41992188 -0.055664062 -0.095703125 0.03466797 0.16699219 -0.013977051 0.17480469 -0.026367188 -0.4453125 -0.064941406 -0.2578125 -0.14941406 -0.17089844 0.24902344 -0.088378906 -0.14648438 0.046142578 0.015014648 0.125 -0.053955078 0.08544922 0.030273438 -0.02722168 0.028686523 0.053710938 0.1640625 -0.009521484 -0.12695312 0.25976562 -0.45117188 0.0859375 0.12011719 -0.0052490234 0.19921875 0.28710938 0.024291992 -0.09814453 0.119140625 -0.13378906 -0.19921875 -0.0012283325 0.22558594 0.29296875 0.3515625 0.043945312 0.37695312 0.23339844 -0.037109375 -0.0859375 -0.15332031 -0.096191406 0.17285156 -0.34570312 -0.10644531 -0.010864258 -0.24316406 -0.18945312 0.18652344 0.0052490234 0.20507812 0.25976562 -0.01965332 0.019165039 -0.028442383 -0.26171875 0.15332031 -0.051513672 -0.25585938 0.07324219 -0.16796875 0.16503906 0.3671875 -0.453125 0.055419922 0.05126953 -0.29296875 0.359375 0.0009422302 -0.032470703 0.265625 0.10595703 -0.26953125 0.44726562 0.14550781 0.07128906 0.20019531 0.0022735596 0.35546875 -0.020385742 0.036376953 0.18359375 -0.19824219 0.0063171387 -0.026000977 -0.11816406 -0.02734375 0.13574219 -0.18066406 0.14746094 -0.16601562 -0.07373047 0.091308594 0.13574219 -0.12597656 0.11425781 0.18457031 0.018310547 -0.27539062 -0.076660156 0.022338867 -0.029296875 -0.0040283203 0.10205078 0.14550781 0.09814453 -0.038085938 -0.059570312 0.10595703 -0.021728516 0.072753906 0.34960938 -0.042236328 0.100097656 -0.29492188 -0.34179688 0.15917969 0.057861328 0.061035156 -0.29882812 0.008300781 -0.005126953 0.10498047 0.00019168854 -0.28710938 0.27148438 0.017822266 -0.06640625 0.0059814453 -0.32617188 -0.38476562 -0.092285156 -0.18164062 0.029663086 0.036376953 -0.2890625 0.24902344 0.09326172 -0.00075149536 0.17675781 0.059570312 -0.08642578 0.30273438 0.080566406 -0.12695312 0.02319336 0.053466797 -0.22460938 -0.023925781 -0.28710938 -0.084472656 -0.08251953 -0.033691406 0.08642578 -0.32226562 0.11669922 -0.06591797 0.103515625 0.048828125 -0.1875 0.5 0.39453125 -0.19335938 -0.16015625 -0.07373047 -0.14257812 -0.088378906 -0.18554688 -0.37695312 0.13867188 0.008605957 -0.15625 -0.33203125 -0.029663086 0.4296875 0.21386719 0.32226562 -0.10205078 -0.05078125 0.36914062 -0.07128906 -0.03930664 0.09716797 0.12451172 0.057617188 0.16992188 -0.29492188 -0.04272461 0.11425781 -0.16601562 -0.07519531 -0.34179688 -0.029663086 -0.11376953 -0.09033203
1b 0.021606445 0.10205078 0.24609375 0.2578125 -0.58203125 -0.6015625 0.07373047 -0.29492188 -0.095214844 -0.3203125 0.076660156 -0.67578125 0.061035156 0.22070312 -0.265625 0.017822266 -0.028564453 0.0546875 -0.1796875 0.05834961 -0.24609375 -0.34375 0.25 -0.4140625 0.41210938 -0.41015625 -0.44921875 0.071777344 -0.29492188 0.45703125 -0.40234375 0.04321289 -0.31835938 -0.5390625 -0.07470703 -0.25585938 -0.26953125 0.19433594 -0.05810547 0.31640625 -0.16503906 -0.3359375 -0.17578125 0.15625 -0.007171631 -0.23828125 -0.171875 0.19335938 -0.015625 0.37109375 -0.29882812 0.48632812 0.14257812 -0.27929688 -0.045654297 0.05493164 0.02734375 0.13476562 0.08105469 -0.25195312 -0.12011719 -0.03540039 -0.01965332 0.171875 -0.38867188 -0.5625 0.35546875 0.003250122 0.45898438 0.021240234 -0.014892578 -0.390625 0.003326416 -0.123535156 -0.03540039 -0.14453125 -0.19433594 0.19726562 -0.044921875 0.30664062 -0.4453125 -0.099121094 -0.67578125 -0.09472656 0.28515625 0.09423828 -0.1328125 1.0 -0.114746094 0.029541016 0.36914062 -0.16308594 -0.5078125 0.08154297 -0.021362305 0.34765625 0.16210938 0.08105469 -0.1875 -0.37695312 0.22363281 0.014892578 0.28320312 0.18847656 0.0018920898 0.14160156 0.022583008 0.15625 -0.16113281 -0.11669922 -0.056640625 0.0053100586 -0.2890625 -0.3203125 -0.265625 0.19921875 -0.265625 0.16796875 0.103027344 0.18847656 0.33398438 0.13964844 0.21875 0.45703125 0.14746094 -0.51953125 0.039794922 0.2265625 -0.037353516 -0.2578125 0.15234375 -0.15820312 0.0007019043 0.064941406 -0.15527344 -0.31835938 0.036865234 0.44335938 -0.026733398 0.44726562 0.17480469 0.37304688 0.34570312 0.22753906 -0.103515625 0.09716797 -0.25 0.62109375 0.08544922 -0.296875 -0.018432617 -0.64453125 -0.2265625 -0.37890625 -0.068847656 0.020385742 0.09667969 0.061767578 0.21972656 -0.032958984 -0.072753906 0.0057373047 0.1953125 -0.60546875 0.032714844 0.11376953 0.37304688 -0.06298828 -0.16796875 -0.42382812 -0.08984375 0.21484375 -0.11328125 -0.05078125 -0.123535156 0.2578125 0.15527344 -0.42382812 0.13476562 0.14355469 -0.22851562 -0.049804688 -0.023071289 0.34765625 -0.083984375 -0.10107422 -0.025390625 -0.02709961 0.15332031 0.008544922 0.28320312 -0.05444336 -0.11767578 -0.21582031 -0.009338379 -0.16992188 0.23730469 -0.014526367 0.3828125 -0.17480469 -0.07519531 -0.083496094 0.14453125 -0.25390625 0.41992188 -0.27539062 -0.27929688 -0.24414062 -0.080566406 0.21191406 0.42382812 -0.1640625 -0.38867188 0.47070312 0.390625 0.33203125 0.29882812 -0.12451172 0.359375 -0.44335938 0.140625 0.14160156 0.35742188 -0.018554688 -0.020263672 -0.037597656 0.23144531 0.26171875 0.052001953 -0.6171875 0.15917969 0.62890625 -0.33984375 -0.25195312 -0.30859375 -0.26757812 -0.15429688 0.08886719 -0.25195312 -0.05102539 -0.17773438 0.5234375 0.29296875 -0.026611328 0.38867188 -0.5625 0.016845703 0.54296875 -0.084472656 -0.099609375 -0.12597656 -0.012145996 -0.29296875 -0.0068969727 -0.16210938 0.010314941 0.30859375 -0.06738281 -0.015380859 -0.47070312 0.12011719 -0.42773438 -0.23046875 -0.033935547 -0.0046691895 0.26171875 0.16601562 0.10498047 -0.23632812 0.2890625 0.024291992 0.13964844 0.03491211 -0.12451172 0.09326172 0.21582031 -0.076660156 0.13378906 0.0625 0.80859375 -0.055419922 0.36914062 -0.17578125 0.31054688 0.33984375 0.15820312 0.48828125 0.20410156 0.3515625 0.00340271 -0.061035156 -0.38476562 -0.4296875 -0.11035156 -0.014770508 -0.08544922 -0.41015625 0.19726562 0.36523438 0.013671875
1c 0.20410156 -0.74609375 -0.20996094 0.061523438 0.02734375 -0.328125 -0.03564453 0.111328125 -0.027954102 0.15527344 -0.029052734 0.087402344 -0.12597656 0.048339844 -0.27148438 0.13671875 0.037597656 0.075683594 0.34375 0.20507812 0.014221191 -0.41796875 -0.11230469 -0.34765625 0.18457031 0.10595703 -0.25585938 0.48632812 0.052001953 -0.28320312 -0.16210938 -0.20214844 -0.07763672 -0.3359375 -0.045898438 -0.018188477 0.22851562 0.18554688 0.004760742 0.25390625 0.099609375 -0.578125 0.2578125 0.061279297 -0.17773438 -0.03955078 0.064453125 0.14550781 -0.14453125 -0.19335938 -0.17773438 -0.24511719 -0.15820312 -0.22851562 -0.03540039 0.16503906 -0.0234375 -0.19824219 0.14746094 0.114746094 -0.09326172 -0.08984375 0.041748047 0.4375 0.10058594 -0.32617188 -0.09765625 -0.32226562 0.25 -0.14746094 -0.45507812 -0.26757812 0.08154297 -0.041992188 -0.06689453 -0.27148438 0.58203125 0.05859375 0.296875 0.053222656 -0.087402344 -0.096191406 -0.36914062 -0.12792969 0.16113281 0.3046875 0.38671875 -0.100097656 0.08935547 0.029418945 0.18847656 0.25585938 0.050048828 -0.04663086 -0.10449219 0.29492188 -0.14257812 -0.25390625 -0.37109375 -0.41210938 0.2734375 -0.028686523 0.09667969 -0.044189453 -0.15234375 0.072753906 0.38867188 0.15429688 -0.26367188 0.052490234 -0.16992188 -0.114746094 0.06640625 0.04296875 0.04638672 -0.10644531 -0.09082031 0.12402344 0.28515625 0.19628906 0.095703125 0.41015625 -0.034179688 -0.040527344 0.13574219 -0.15136719 -0.17382812 0.23632812 0.20410156 0.62109375 0.16015625 0.026611328 0.4296875 -0.0079956055 -0.16601562 0.09814453 0.29492188 0.5859375 -0.12060547 0.45117188 0.40429688 -0.22851562 0.0025177002 -0.26367188 0.34375 -0.40234375 0.03149414 -0.20605469 0.087402344 -0.24707031 0.037841797 -0.35351562 -0.15722656 0.15429688 -0.06738281 -0.19140625 0.15527344 -0.20605469 -0.47265625 0.018310547 0.13085938 0.21386719 0.09716797 0.20214844 -0.4609375 -0.2890625 0.13671875 0.17285156 -0.032470703 -0.25976562 0.008422852 0.16503906 0.26757812 0.19335938 -0.23828125 -0.06640625 0.296875 -0.23632812 0.18847656 -0.023803711 -0.12109375 0.17675781 -0.06201172 0.31445312 -0.33398438 -0.26171875 -0.12890625 -0.107421875 -0.15332031 0.18261719 -0.10839844 0.053222656 -0.16308594 -0.45117188 0.13574219 0.008728027 -0.095703125 0.11279297 0.75390625 -0.50390625 0.17871094 -0.057373047 0.032470703 -0.22363281 0.25390625 -0.25585938 -0.34765625 -0.10888672 0.34375 -0.609375 0.25195312 -0.12890625 -0.1875 0.21679688 -0.071777344 0.140625 0.40039062 0.10253906 0.19140625 -0.18945312 -0.04272461 0.8203125 -0.18066406 0.010192871 -0.26171875 -0.16210938 0.18457031 -0.18847656 0.2578125 0.017211914 -0.17480469 -0.12597656 -0.11279297 0.12792969 0.30664062 -0.061279297 0.24609375 0.12060547 0.13574219 0.009643555 0.17578125 0.14550781 -0.02331543 0.048339844 0.25390625 0.0625 -0.3203125 0.72265625 -0.4296875 -0.106933594 0.24707031 0.25585938 -0.049316406 -0.30078125 0.10449219 0.05493164 0.203125 0.02734375 0.20800781 -0.14746094 0.6015625 0.099609375 0.109375 -0.18164062 -0.13085938 -0.007751465 -0.014343262 -0.1796875 0.0138549805 0.13867188 -0.46484375 -0.27734375 -0.0625 -0.33789062 0.12402344 0.12597656 -0.27539062 0.18164062 0.12792969 0.296875 -0.10253906 0.7265625 0.13183594 0.28125 0.296875 -0.064941406 0.080566406 0.119628906 -0.115234375 -0.1640625 -0.026611328 -0.33398438 -0.30664062 0.3828125 0.08105469 0.24023438 -0.11767578 -0.09863281 0.4921875 -0.099121094
1d 0.19335938 -0.05810547 -0.12158203 0.14746094 -0.171875 -0.38085938 -0.13964844 0.024658203 -0.19433594 -0.0099487305 0.34375 -0.23046875 -0.107421875 0.20996094 0.0049438477 0.06347656 0.07324219 0.22265625 -0.08691406 -0.28125 -0.31640625 -0.36328125 -0.06982422 0.037841797 0.06933594 -0.118652344 -0.33398438 0.18847656 -0.09375 0.01586914 -0.15625 0.140625 0.14160156 -0.29101562 -0.40625 0.10595703 0.22070312 0.20605469 -0.09082031 0.087402344 0.11230469 -0.13085938 0.17871094 -0.030395508 -0.0017318726 -0.18066406 -0.018676758 0.11816406 -0.31445312 -0.03881836 -0.41210938 -0.09375 -0.23535156 -0.27734375 0.09765625 0.024169922 0.15527344 -0.22851562 0.060791016 -0.1328125 -0.111328125 -0.122558594 0.075683594 -0.43945312 -0.34570312 -0.5078125 -0.31054688 -0.014953613 0.043701172 0.048828125 0.022338867 -0.17480469 0.24609375 -0.1328125 0.20507812 0.078125 0.11425781 -0.005706787 -0.011657715 -0.15722656 -0.2265625 -0.08691406 0.12988281 -0.171875 0.06347656 0.25390625 0.029418945 0.484375 0.25390625 0.06591797 0.20898438 0.21386719 -0.071777344 0.024780273 -0.087402344 0.3046875 0.26171875 0.0059814453 -0.018554688 0.092285156 0.11035156 0.008911133 0.119628906 0.022583008 0.032226562 0.29101562 -0.050048828 -0.123046875 -0.38671875 0.14746094 0.060058594 -0.04345703 -0.11425781 0.09375 0.1640625 0.24023438 -0.14941406 -0.26367188 0.17773438 -0.12451172 0.09716797 0.107910156 -0.07910156 0.00048828125 0.31445312 -0.33789062 0.13964844 0.16992188 -0.078125 0.26953125 0.328125 0.037109375 -0.15722656 -0.06298828 -0.24511719 0.044433594 -0.06201172 0.095214844 0.095214844 0.26757812 0.15039062 0.18164062 -0.029663086 -0.033935547 -0.005065918 0.08154297 -0.12060547 0.17578125 -0.15722656 -0.10595703 -0.16796875 -0.1796875 0.14160156 -0.013366699 0.11279297 -0.057617188 0.30664062 0.19433594 0.020874023 0.10986328 -0.22753906 -0.087402344 0.35351562 -0.05102539 -0.037841797 -0.21289062 0.37304688 0.16796875 -0.34179688 0.012573242 -0.22460938 -0.020996094 0.072753906 0.008422852 -0.234375 0.20019531 0.07128906 -0.23730469 0.17089844 0.23242188 -0.15527344 -0.13867188 -0.29492188 0.14257812 0.06933594 -0.103027344 0.18261719 0.15820312 -0.1015625 -0.19628906 -0.003829956 0.049316406 -0.1640625 -0.16113281 0.12109375 0.01586914 -0.018188477 0.05883789 -0.0021209717 -0.15917969 -0.0049438477 0.12792969 -0.16503906 -0.30859375 -0.052978516 0.06347656 -0.39648438 0.04711914 -0.084472656 0.07421875 0.10986328 0.04711914 -0.044677734 0.08642578 0.16308594 -0.10546875 0.19726562 -0.19238281 -0.087890625 -0.20214844 -0.19140625 0.23144531 0.265625 -0.035888672 -0.30859375 0.017944336 -0.25390625 0.0625 0.10595703 -0.33203125 -0.005859375 0.22460938 0.032226562 -0.10888672 -0.45703125 -0.08251953 -0.018066406 0.064941406 0.088378906 -0.119140625 -0.115234375 0.028198242 0.30078125 -0.26757812 0.19628906 0.32421875 -0.35351562 0.38867188 0.25585938 0.10986328 0.1640625 0.22558594 -0.011962891 0.04736328 -0.16210938 -0.18066406 0.0043640137 0.21777344 0.28125 -0.19335938 0.01373291 -0.021972656 -0.04345703 -0.37304688 -0.0031585693 0.18066406 0.29882812 0.013305664 -0.01977539 -0.16992188 0.04736328 -0.15722656 -0.31445312 0.03515625 0.18554688 0.03125 -0.27539062 -0.06542969 -0.092285156 0.3671875 0.08886719 0.5390625 0.021972656 -0.390625 0.1796875 -0.15917969 -0.23046875 0.27734375 -0.115234375 0.09033203 0.10839844 -0.25390625 0.08691406 0.27148438 -0.1484375 0.111328125 -0.42773438 -0.26171875 0.044433594 0.27148438
1st 0.22070312 0.068359375 0.06689453 0.14941406 -0.055664062 -0.16210938 -0.35546875 0.078125 0.1484375 0.039794922 -0.20507812 -0.11035156 -0.13183594 0.09667969 -0.020507812 -0.10205078 0.122558594 -0.18164062 -0.092285156 -0.23730469 -0.21484375 -0.171875 -0.09667969 -0.018066406 -0.111816406 -0.16210938 0.09423828 0.0019226074 0.10107422 0.2734375 -0.2109375 -0.15039062 -0.020019531 -0.22070312 0.095703125 0.046142578 -0.053466797 0.020019531 -0.0234375 -0.044921875 -0.060058594 -0.19335938 0.11376953 0.12988281 0.20507812 0.068359375 0.13183594 -0.12597656 -0.002822876 0.17578125 0.050048828 0.14648438 0.35742188 0.2890625 -0.01965332 0.08154297 -0.12207031 -0.016845703 -0.171875 -0.09716797 -0.24511719 -0.1875 -0.026855469 -0.20410156 -0.07910156 0.015014648 -0.008728027 0.05810547 0.18164062 0.34960938 0.22265625 -0.26953125 -0.034179688 0.047851562 -0.115722656 0.05834961 -0.060791016 0.0029296875 0.09033203 -0.039794922 0.11425781 -0.09375 0.10205078 -0.04272461 -0.0009994507 -0.23828125 0.0048217773 0.18457031 0.12890625 0.075683594 0.104003906 -0.08300781 -0.020507812 -0.20800781 -0.19433594 0.05834961 -0.16210938 -0.025024414 0.15917969 0.37695312 -0.0078125 -0.2734375 -0.15722656 -0.053466797 0.021850586 -0.11816406 0.01184082 -0.27734375 -0.05419922 -0.072265625 0.19140625 0.060791016 -0.21777344 -0.13964844 0.015625 0.060546875 -0.15429688 -0.103027344 0.048095703 0.115722656 -0.1484375 -0.1015625 0.00040245056 0.051757812 0.12402344 -0.14648438 -0.038330078 -0.008239746 0.17578125 0.1328125 -0.002960205 -0.20214844 -0.22753906 -0.071777344 -0.30273438 -0.16015625 -0.15917969 -0.099121094 -0.11669922 0.13867188 -0.024658203 0.17675781 0.10253906 -0.1953125 -0.35742188 0.21777344 0.056640625 0.12792969 -0.037353516 -0.087402344 -0.115234375 -0.056396484 0.030883789 -0.10595703 0.0046691895 0.1015625 0.15136719 0.024047852 -0.11621094 -0.10449219 -0.16503906 -0.03540039 0.051513672 -0.12060547 0.064941406 -0.046142578 0.23632812 0.18847656 -0.12109375 0.10644531 -0.25390625 -0.12890625 0.16796875 -0.01977539 -0.033447266 0.171875 0.050048828 -0.123535156 0.29101562 -0.10888672 -0.1875 -0.34960938 0.0390625 0.45703125 -0.31054688 -0.08105469 0.34570312 0.1484375 0.40625 0.084472656 -0.043701172 0.16796875 0.014465332 -0.06225586 0.328125 -0.22070312 0.08642578 0.0053710938 0.19042969 -0.22851562 -0.005340576 0.16796875 0.04248047 -0.23144531 -0.16699219 0.09375 0.0025787354 -0.0095825195 -0.0703125 -0.0038757324 -0.107421875 0.45117188 -0.13183594 -0.16503906 -0.010803223 -0.091308594 0.12597656 -0.17773438 0.107910156 -0.37695312 0.0034332275 0.052001953 0.087402344 0.22363281 -0.20605469 -0.13476562 -0.016235352 -0.0043029785 -0.06982422 -0.18164062 0.099609375 0.16796875 -0.17675781 0.049072266 -0.014099121 0.071777344 0.06738281 -0.07421875 -0.049804688 0.09423828 -0.08642578 0.23242188 0.091308594 0.015319824 -0.027954102 0.014160156 -0.09082031 0.076171875 0.08642578 -0.14550781 -0.051757812 -0.028564453 -0.16503906 -0.08300781 0.10888672 0.09863281 -0.03466797 0.049072266 0.13183594 -0.08300781 0.14941406 0.0067749023 -0.21191406 0.087402344 -0.020507812 -0.16796875 -0.140625 -0.14746094 -0.3125 0.080566406 -0.1171875 0.15820312 0.19921875 -0.12451172 0.13574219 -0.059814453 -0.17480469 -0.07373047 -0.171875 0.125 0.024169922 0.044921875 0.11816406 0.12597656 0.15722656 -0.048583984 -0.092285156 0.008361816 0.064453125 0.068847656 0.16308594 -0.106933594 -0.25 0.14550781 -0.076171875 -0.015625 -0.29101562 -0.22265625 -0.010375977 0.071777344
2 0.106933594 -0.10546875 0.053222656 0.06982422 -0.07324219 0.00025177002 0.103515625 -0.083496094 0.080566406 0.114746094 -0.076171875 0.012512207 0.09472656 -0.103515625 -0.088378906 -0.015625 0.06689453 0.017700195 -0.032958984 -0.0039978027 -0.14355469 -0.18847656 0.043701172 -0.03125 0.026977539 0.036621094 -0.15820312 -0.012268066 0.049804688 0.028686523 -0.20898438 -0.1484375 -0.08886719 -0.41796875 -0.31054688 0.053466797 -0.107910156 0.21386719 -0.0115356445 0.13085938 0.100097656 -0.16210938 -0.021240234 0.12597656 0.0043945312 0.103515625 0.11328125 -0.076171875 -0.036132812 0.011291504 -0.22265625 0.16699219 0.12597656 -0.08203125 -0.13183594 0.028808594 -0.15625 -0.11767578 -0.09814453 -0.020996094 -0.18847656 0.030517578 -0.067871094 -0.19335938 -0.07080078 -0.005645752 -0.08935547 0.099121094 0.26171875 0.09082031 -0.018920898 -0.00491333 0.026733398 -0.05419922 0.123046875 0.068847656 0.0119018555 -0.14257812 0.044921875 -0.021972656 -0.14355469 -0.08642578 0.10253906 0.068847656 -0.055664062 0.021972656 -0.123046875 0.1875 0.083984375 0.017822266 -0.10498047 0.17773438 0.07324219 -0.026245117 0.035888672 0.014343262 -0.076171875 0.05883789 0.05810547 0.24316406 0.08203125 -0.045898438 0.03149414 -0.14355469 -0.052490234 -0.07910156 0.02368164 -0.234375 -0.053955078 -0.13574219 -0.056884766 -0.08544922 -0.10107422 -0.19433594 -0.016723633 0.080078125 0.17871094 0.04272461 0.020507812 0.091308594 -0.018554688 0.044677734 0.104003906 -0.08105469 0.23925781 -0.08496094 0.13671875 0.17773438 0.064941406 0.140625 0.115234375 0.06982422 -0.01586914 -0.035888672 -0.19238281 -0.0126953125 -0.033447266 0.00036621094 0.03955078 0.26367188 0.06689453 0.19238281 0.20898438 -0.017089844 -0.08642578 -0.083496094 0.16113281 0.16308594 -0.08300781 -0.15429688 0.20214844 -0.092285156 -0.12890625 0.080566406 -0.18066406 0.123535156 0.02758789 0.13476562 -0.09277344 0.12988281 -0.025268555 -0.05102539 0.24511719 0.10205078 -0.056152344 0.123535156 0.15527344 0.23730469 -0.030883789 0.012634277 -0.06689453 -0.140625 -0.022094727 -0.103515625 -0.12988281 -0.05444336 0.041259766 -0.16992188 -0.009277344 0.037353516 -0.100097656 -0.10058594 -0.024169922 0.36914062 0.031982422 -0.07714844 0.14453125 0.07714844 0.27148438 -0.20605469 0.092285156 -0.18652344 0.16015625 -0.29296875 -0.037353516 0.095214844 -0.048095703 0.19140625 -0.057861328 -0.2734375 -0.29296875 0.04272461 0.033935547 -0.03466797 0.009338379 -0.033691406 -0.09423828 0.095703125 -0.07080078 -0.039794922 0.103515625 0.061035156 0.07324219 -0.04638672 -0.16699219 0.13964844 0.10644531 -0.12402344 0.020751953 -0.14648438 -0.10205078 -0.028686523 0.071777344 0.052001953 0.020507812 -0.05810547 -0.33007812 0.080078125 -0.03930664 -0.10888672 0.017456055 0.014038086 0.011779785 0.111328125 -0.13867188 0.029052734 0.012084961 -0.23828125 -0.016845703 -0.087890625 -0.20898438 0.28125 0.19921875 -0.15039062 0.024291992 -0.08251953 0.08300781 -0.020507812 0.18359375 -0.14648438 0.053222656 0.12060547 -0.2109375 -0.0037078857 0.106933594 0.049316406 0.015380859 -0.2421875 0.052246094 -0.111328125 0.036865234 -0.064941406 -0.068847656 0.024658203 0.040771484 0.05078125 0.056640625 0.046875 -0.14648438 0.041748047 0.11279297 -0.013244629 0.07763672 -0.18164062 0.08642578 0.006591797 -0.23339844 -0.017822266 0.14746094 0.10595703 0.119628906 0.10644531 -0.044677734 0.076660156 0.19921875 -0.13671875 0.016113281 0.1171875 -0.048095703 0.072265625 -0.010620117 -0.028808594 -0.16113281 0.13378906 -0.04321289 0.044189453 -0.21386719 -0.14746094 -0.0625 0.076660156
2a -0.18554688 -0.22753906 -0.0625 0.23046875 -0.20214844 -0.1796875 -0.20507812 -0.3203125 -0.07324219 0.08984375 0.017944336 -0.099121094 -0.29492188 0.21191406 -0.03857422 -0.0038604736 -0.08935547 0.23730469 -0.35742188 -0.07324219 0.21386719 -0.38867188 -0.13378906 0.15039062 0.14648438 -0.0022735596 -0.078125 0.10595703 -0.09863281 0.21875 -0.18847656 0.10888672 0.16601562 -0.2734375 -0.35546875 0.0069274902 -0.28710938 0.034423828 -0.30078125 -0.15039062 0.16796875 -0.07080078 0.23144531 0.3046875 0.03955078 0.08300781 0.16308594 -0.2265625 -0.15039062 -0.37109375 -0.33398438 0.13476562 -0.045898438 -0.14746094 0.21386719 0.053466797 -0.11230469 -0.064453125 -0.20117188 -0.15820312 -0.296875 0.068847656 -0.12207031 -0.27539062 -0.16894531 -0.51953125 -0.2421875 -0.02734375 0.032226562 0.23535156 0.09863281 -0.28320312 0.33789062 -0.045410156 0.02355957 -0.016357422 0.055664062 -0.1171875 0.10205078 0.140625 -0.32617188 0.27148438 -0.31640625 -0.19433594 0.15722656 0.076660156 -0.15917969 0.6171875 0.25976562 0.11767578 -0.20019531 -0.10546875 0.099609375 0.27734375 0.10986328 0.005065918 0.34375 -0.13476562 0.041015625 0.07128906 0.18359375 0.12451172 0.25195312 -0.12451172 -0.18164062 0.032714844 -0.20117188 -0.008544922 -0.21972656 0.021240234 0.052001953 -0.12158203 -0.3203125 -0.34179688 0.15136719 0.017456055 -0.019165039 -0.015625 0.110839844 0.18359375 0.29882812 0.0625 -0.076171875 -0.08105469 0.13574219 -0.08496094 0.017333984 0.12695312 0.05517578 0.125 0.049072266 -0.27734375 -0.087402344 -0.0033721924 -0.030395508 -0.04736328 -0.16894531 0.15429688 0.3203125 0.265625 0.25976562 0.328125 -0.05908203 0.114746094 0.13964844 -0.05102539 -0.27539062 0.049804688 -0.25195312 0.1796875 0.015625 -0.3203125 -0.16113281 -0.12890625 -0.20410156 0.12451172 0.30664062 0.11767578 0.044677734 0.016235352 -0.04736328 0.16601562 0.18261719 -0.18359375 -0.09375 0.15625 0.20214844 0.40234375 -0.13085938 0.08154297 -0.21191406 -0.35546875 0.14941406 0.17675781 0.0026397705 0.29492188 -0.053466797 -0.39257812 0.14550781 0.017211914 -0.16503906 0.05908203 0.09033203 0.24609375 0.0026550293 -0.008422852 0.25585938 0.05419922 -0.12695312 -0.09814453 -0.015991211 -0.18554688 0.109375 0.09423828 0.08300781 -0.13574219 0.044921875 0.14746094 0.1875 -0.40234375 0.00038909912 0.1015625 0.17382812 -0.044921875 -0.38671875 -0.20605469 -0.0074768066 0.1328125 0.123535156 0.26757812 -0.017456055 -0.19140625 0.08984375 -0.021972656 -0.32617188 0.007080078 0.27734375 0.1484375 0.0859375 -0.43164062 -0.14355469 0.22558594 0.20507812 -0.00579834 -0.23828125 0.09326172 0.056152344 0.171875 -0.027709961 -0.15625 0.13867188 0.0013427734 -0.12597656 0.049804688 -0.30859375 -0.072753906 0.015563965 -0.27734375 0.017578125 -0.118652344 -0.14257812 0.35546875 0.36914062 -0.016357422 0.25976562 0.034179688 -0.33398438 0.38085938 -0.0703125 -0.03100586 -0.099609375 0.014526367 0.15625 -0.049560547 -0.10253906 -0.07324219 -0.0859375 -0.018188477 0.103027344 -0.033935547 -0.006011963 -0.16308594 -0.044677734 -0.14257812 -0.03515625 0.14746094 0.43554688 -0.14746094 -0.005645752 -0.3203125 0.15332031 0.011291504 -0.44921875 -0.26953125 -0.034423828 0.08203125 -0.026855469 -0.125 0.033203125 0.1953125 0.08300781 0.37109375 0.109375 0.07763672 0.22265625 -0.18261719 0.09667969 0.14941406 -0.119628906 -0.10253906 -0.052978516 -0.040039062 0.06982422 0.034423828 -0.17382812 -0.06640625 0.00013256073 -0.18164062 -0.31445312 0.0029754639
2b -0.078125 -0.0087890625 0.18066406 0.35742188 -0.5078125 -0.609375 0.34179688 -0.46875 -0.44335938 -0.42773438 -0.06298828 -0.578125 0.015258789 0.1796875 -0.36328125 0.35546875 0.13769531 0.30273438 -0.35742188 -0.052734375 0.008361816 -0.453125 0.24316406 -0.42578125 0.27539062 -0.5 -0.21386719 0.36523438 -0.4921875 0.39648438 -0.69140625 0.22363281 -0.59375 -0.52734375 -0.11230469 -0.23535156 -0.38867188 0.2421875 -0.20800781 0.17675781 -0.15429688 -0.35546875 -0.31835938 0.014160156 -0.21972656 0.025024414 -0.21582031 -0.07324219 0.110839844 0.45117188 -0.63671875 0.59765625 0.19433594 -0.30664062 -0.1796875 0.087890625 -0.15527344 0.052734375 0.111328125 -0.46289062 -0.030639648 -0.104003906 -0.1328125 0.33984375 -0.18164062 -0.50390625 0.28125 0.21484375 0.3828125 0.21875 -0.02368164 -0.44726562 -0.0625 -0.095703125 -0.123046875 -0.16894531 -0.3203125 -0.22265625 0.17089844 0.15527344 -0.4453125 0.010009766 -0.66796875 -0.045898438 0.6015625 0.0031585693 -0.3046875 1.3671875 -0.021606445 -0.265625 0.2421875 -0.16796875 -0.31054688 0.104003906 -0.079589844 0.052978516 0.031982422 -0.22363281 -0.021118164 -0.21972656 0.24414062 0.23339844 0.27539062 -0.025634766 -0.17578125 0.33984375 -0.107910156 0.20996094 -0.17285156 0.025878906 -0.092285156 -0.084472656 -0.38671875 -0.37890625 -0.13085938 0.234375 -0.26953125 0.14160156 0.33398438 0.34960938 0.5234375 0.12207031 -0.110839844 0.5 0.203125 -0.39648438 -0.016967773 0.29296875 -0.09277344 -0.16015625 0.072265625 -0.48632812 0.0030517578 0.072753906 -0.36914062 -0.1640625 0.18164062 0.35742188 -0.09863281 0.53515625 0.08105469 0.5625 0.32421875 0.16796875 -0.15917969 0.07910156 -0.45117188 0.5546875 0.12109375 -0.24902344 -0.024291992 -0.6171875 -0.20507812 -0.4375 -0.296875 -0.103027344 0.23339844 0.22851562 0.46875 0.083496094 -0.08251953 0.0625 0.29882812 -0.56640625 -0.0045776367 0.28710938 0.4375 0.052001953 -0.09863281 -0.5546875 -0.27539062 0.14453125 -0.06982422 0.07421875 -0.075683594 0.38867188 -0.0029907227 -0.4453125 0.024902344 0.06738281 -0.4921875 -0.091308594 0.0035705566 0.390625 -0.08251953 -0.04711914 0.071777344 0.014404297 0.265625 0.24316406 0.41601562 -0.21484375 -0.091308594 -0.21484375 -0.0703125 -0.07910156 0.28125 0.09667969 0.4609375 -0.17285156 0.072753906 -0.10986328 0.37304688 -0.38476562 0.51171875 -0.119628906 -0.09814453 -0.14550781 -0.036376953 0.20019531 0.43359375 0.06542969 0.0390625 0.41796875 0.21484375 0.13867188 0.12988281 0.06738281 0.16699219 -0.19628906 0.20898438 0.13085938 0.44921875 -0.078125 0.18945312 0.087890625 -0.095703125 0.006713867 0.0013046265 -0.36914062 0.118652344 0.66015625 -0.4296875 -0.13085938 -0.26953125 -0.3125 -0.25390625 0.026733398 0.0038757324 0.18652344 -0.13183594 0.43164062 0.36914062 0.29492188 0.53515625 -0.32617188 -0.060302734 0.6171875 -0.1640625 0.0076293945 -0.012451172 -0.30664062 -0.15527344 0.1484375 0.11035156 0.057128906 0.18554688 0.11767578 0.114746094 -0.69140625 0.107421875 -0.29101562 -0.30859375 0.056152344 -0.057861328 0.546875 0.20898438 0.13085938 -0.30078125 0.21679688 0.15332031 0.22753906 0.1328125 0.1796875 0.15429688 0.421875 -0.34179688 0.14160156 0.18554688 0.87890625 0.10205078 0.5234375 -0.13378906 0.3046875 0.3671875 0.24023438 0.61328125 0.14941406 0.36328125 -0.2109375 -0.13671875 -0.45703125 -0.31445312 -0.22851562 -0.10986328 -0.26171875 -0.58984375 0.05102539 0.44921875 0.045654297
2nd 0.25976562 0.068847656 0.063964844 0.10839844 -0.03173828 -0.072265625 -0.38671875 0.023071289 0.080078125 0.06640625 -0.24902344 -0.020629883 -0.05444336 0.12695312 0.05029297 -0.08984375 0.109375 -0.25390625 -0.10253906 -0.096191406 -0.09716797 -0.12988281 -0.095703125 0.0014343262 -0.016723633 -0.28320312 0.06982422 0.04248047 -0.021606445 0.27734375 -0.19335938 -0.17480469 -0.08203125 -0.1640625 0.09423828 0.018676758 0.08251953 0.046875 -0.110839844 -0.013000488 -0.1328125 -0.11816406 0.0625 0.1875 0.12695312 0.17285156 0.087402344 -0.10058594 -0.020019531 0.14648438 0.092285156 0.061523438 0.41210938 0.21289062 -0.08154297 0.1640625 0.05883789 0.041503906 -0.15039062 -0.024169922 -0.115722656 -0.22460938 -0.107910156 -0.35546875 -0.22070312 0.026733398 0.08496094 -0.014282227 0.2890625 0.29492188 0.24511719 -0.18164062 0.048583984 -0.012939453 -0.119628906 0.026123047 -0.15625 -0.040283203 0.14941406 -0.040283203 0.091308594 -0.03466797 0.11328125 -0.20117188 0.17675781 -0.23535156 -0.03857422 0.31054688 0.040771484 0.06225586 0.04272461 -0.076171875 0.03125 -0.16503906 -0.1640625 -0.060302734 -0.095703125 -0.024414062 0.15234375 0.35546875 -0.091796875 -0.33984375 -0.045410156 -0.15136719 -0.024780273 -0.057128906 -0.08300781 -0.33789062 -0.06347656 -0.14355469 0.16308594 0.07421875 -0.13574219 -0.100097656 -0.001449585 0.041748047 -0.14550781 -0.05834961 0.09033203 0.12988281 -0.18945312 -0.08105469 -0.021850586 -0.0038909912 0.125 -0.13867188 -0.05810547 -0.040527344 0.07714844 0.09082031 0.039794922 -0.21484375 -0.096191406 -0.022827148 -0.3515625 -0.12451172 -0.02746582 0.0067749023 -0.076171875 0.22460938 0.068847656 0.12451172 0.1640625 -0.19921875 -0.30859375 0.17480469 0.0036773682 0.16992188 -0.014770508 -0.107421875 -0.07714844 -0.0390625 0.021362305 -0.075683594 0.008483887 0.17382812 0.15820312 0.04345703 -0.123046875 -0.20800781 -0.15625 -0.06542969 0.12109375 -0.10839844 0.12890625 0.020263672 0.26953125 0.19042969 -0.013305664 0.080078125 -0.16796875 -0.14355469 0.12158203 -0.103027344 -0.111816406 0.14941406 0.061035156 -0.06225586 0.25 -0.09326172 -0.17480469 -0.22363281 0.040527344 0.43945312 -0.296875 -0.04248047 0.37109375 0.10546875 0.4140625 0.044677734 0.084472656 0.09033203 0.024414062 -0.09863281 0.34960938 -0.1640625 0.071777344 -0.0064697266 0.23925781 -0.2109375 -0.00076293945 0.12402344 -0.076660156 -0.29296875 -0.09667969 -0.028320312 -0.06225586 -0.030273438 -0.16015625 0.045410156 -0.08544922 0.34960938 -0.21386719 -0.1328125 -0.09716797 -0.22070312 0.026611328 -0.08105469 0.04248047 -0.3515625 -0.012939453 0.055908203 0.09814453 0.3125 -0.1796875 -0.22851562 -0.063964844 -0.049316406 -0.06933594 -0.13769531 -0.010131836 0.265625 -0.12890625 0.044189453 0.056640625 0.0051574707 0.08496094 -0.021118164 0.016235352 0.19238281 -0.10253906 0.18945312 0.13183594 0.022216797 0.002532959 0.027832031 0.13574219 0.00491333 0.025634766 -0.12890625 -0.09667969 -0.0005874634 -0.19433594 -0.052490234 -0.0031280518 0.06738281 -0.03564453 -0.0154418945 0.064453125 -0.18847656 0.009094238 0.075683594 -0.19335938 0.078125 0.020507812 -0.12695312 -0.1328125 -0.12988281 -0.30078125 0.0234375 -0.17675781 0.118652344 0.09423828 -0.24511719 0.087402344 -0.06738281 -0.16015625 -0.13867188 -0.28320312 0.18847656 0.07373047 -0.0004787445 0.046875 0.20605469 0.1484375 -0.12890625 -0.018432617 -0.005706787 0.0018081665 0.036621094 0.12451172 -0.123535156 -0.203125 0.17578125 -0.14257812 -0.091796875 -0.37304688 -0.091308594 -0.029174805 0.037109375
3 0.114746094 -0.083496094 0.033691406 0.10546875 -0.09277344 -0.018920898 0.09423828 -0.13085938 0.087402344 0.099609375 -0.0703125 -0.045654297 0.12597656 -0.08300781 -0.05078125 -0.09033203 0.09716797 0.01184082 0.023071289 0.00076293945 -0.15332031 -0.15039062 0.03564453 -0.040039062 0.056396484 0.025146484 -0.13574219 -0.052001953 0.08203125 -0.039794922 -0.22851562 -0.14160156 -0.08544922 -0.42578125 -0.296875 -0.009765625 -0.118652344 0.20117188 -0.033203125 0.12451172 0.13964844 -0.05908203 0.0050964355 0.076660156 0.01171875 0.110839844 0.12792969 -0.014160156 -0.019165039 0.032958984 -0.22265625 0.18164062 0.140625 -0.06591797 -0.17285156 0.08886719 -0.09814453 -0.12988281 -0.11767578 -0.007873535 -0.20605469 0.045166016 -0.05102539 -0.20507812 -0.032714844 0.056152344 -0.018066406 0.14160156 0.30078125 0.15039062 -0.080566406 -0.11767578 0.021118164 -0.050048828 0.16699219 0.12890625 0.0008163452 -0.13378906 0.08154297 -0.0050964355 -0.09667969 -0.08496094 0.100097656 0.103027344 -0.002822876 0.060058594 -0.095703125 0.17773438 0.13964844 -0.014282227 -0.15722656 0.171875 -0.0018081665 -0.09814453 0.038330078 0.044189453 -0.021972656 0.032470703 0.09472656 0.23535156 0.11035156 -0.016357422 0.015197754 -0.14746094 0.026489258 -0.09033203 0.032470703 -0.19628906 -0.064453125 -0.15234375 -0.005584717 -0.12060547 -0.15039062 -0.16699219 0.008117676 0.0859375 0.16113281 0.084472656 0.0035858154 0.029663086 -0.057617188 0.042236328 0.11328125 -0.10449219 0.27148438 -0.0703125 0.12597656 0.16308594 0.083496094 0.096191406 0.07324219 0.10107422 -0.053955078 -0.029174805 -0.16601562 -0.023803711 0.014282227 0.036376953 0.010192871 0.1875 0.052734375 0.21972656 0.15234375 0.051757812 -0.034423828 -0.055664062 0.20703125 0.107421875 -0.06689453 -0.052246094 0.16894531 -0.052734375 -0.15039062 0.042236328 -0.20410156 0.17871094 0.064453125 0.05834961 -0.10449219 0.123535156 -0.043945312 -0.029907227 0.27148438 0.08642578 -0.026733398 0.19824219 0.18457031 0.18847656 -0.055908203 -0.024291992 0.013916016 -0.14257812 -0.006713867 -0.14355469 -0.12792969 -0.024536133 0.10644531 -0.12792969 -0.02758789 0.071777344 -0.11621094 -0.10058594 0.017456055 0.3515625 0.033203125 -0.09277344 0.20507812 0.053222656 0.27929688 -0.28515625 0.022705078 -0.25 0.15234375 -0.24023438 -0.031982422 0.048339844 -0.045654297 0.15429688 -0.061035156 -0.27539062 -0.2734375 0.03173828 -0.0050354004 -0.088378906 0.030395508 -0.049072266 -0.080566406 0.03857422 -0.06689453 -0.05883789 0.046875 0.013000488 0.05078125 -0.056640625 -0.14648438 0.16015625 0.16601562 -0.14941406 0.013305664 -0.15917969 -0.08691406 -0.030029297 0.051757812 0.06201172 0.05493164 -0.010864258 -0.34375 0.083496094 -0.026855469 -0.10546875 -0.023925781 0.045654297 0.0115356445 0.16503906 -0.15722656 0.08154297 0.041748047 -0.24902344 -0.028686523 -0.07470703 -0.18652344 0.28515625 0.13769531 -0.15917969 -0.026489258 -0.012023926 0.07324219 -0.0546875 0.119140625 -0.125 0.037597656 0.122558594 -0.1875 -0.038085938 0.1484375 0.051513672 0.06933594 -0.23144531 0.06738281 -0.13867188 0.018676758 -0.07714844 -0.06347656 -0.0031585693 0.0859375 0.028686523 0.037841797 0.0037994385 -0.09765625 0.012023926 0.107421875 -0.022094727 0.08300781 -0.16699219 0.22851562 0.008056641 -0.22167969 -0.011779785 0.07910156 0.09033203 0.078125 0.12988281 -0.017211914 0.072753906 0.16699219 -0.13867188 0.045654297 0.125 -0.08642578 0.099121094 -0.037597656 -0.008728027 -0.15820312 0.123535156 -0.0625 0.064453125 -0.15527344 -0.11230469 -0.072753906 0.07519531
3rd 0.2734375 -0.09082031 0.10205078 0.13867188 -0.13671875 -0.078125 -0.484375 0.037841797 0.15429688 0.06689453 -0.11376953 0.017456055 0.026123047 0.1328125 0.049072266 -0.109375 0.19238281 -0.14257812 -0.125 -0.15039062 -0.030517578 -0.16992188 -0.055908203 0.028320312 0.09667969 -0.24121094 0.08203125 0.119140625 -0.07128906 0.18359375 -0.20507812 -0.20898438 0.014709473 -0.12060547 0.013549805 0.035888672 0.055664062 0.06738281 -0.08886719 -0.1015625 -0.08496094 -0.07714844 0.087890625 0.1328125 0.08642578 0.11230469 -0.024536133 -0.13085938 -0.040283203 0.12597656 0.11767578 0.083984375 0.390625 0.21679688 -0.079589844 0.22167969 0.09716797 0.029296875 -0.13378906 -0.109375 -0.08300781 -0.18554688 -0.16601562 -0.26757812 -0.21679688 0.021484375 0.06201172 0.08642578 0.24414062 0.27539062 0.22460938 -0.14941406 -0.014099121 -0.10498047 -0.095214844 -0.0025939941 -0.068847656 -0.11816406 0.072265625 -0.059570312 0.12011719 -0.118652344 0.01928711 -0.24414062 0.23925781 -0.23828125 0.03466797 0.23242188 -0.06201172 0.095703125 0.048095703 -0.055419922 -0.009887695 -0.21289062 -0.14160156 -0.017211914 -0.09375 -0.018188477 0.099121094 0.35351562 -0.1015625 -0.30664062 -0.09716797 -0.13183594 0.020507812 -0.045654297 0.005279541 -0.29101562 -0.025268555 -0.11376953 0.20507812 0.11767578 -0.19042969 -0.08154297 0.015319824 0.045166016 -0.17578125 -0.07324219 0.17089844 0.125 -0.17675781 -0.17578125 -0.007751465 -0.0056152344 0.057861328 -0.20800781 0.041015625 0.02746582 0.099121094 0.053222656 0.05517578 -0.21191406 -0.14160156 -0.03173828 -0.40039062 -0.045654297 0.049560547 0.0044555664 -0.10449219 0.18457031 0.011779785 0.122558594 0.06347656 -0.1328125 -0.17285156 0.19921875 0.03857422 0.115234375 0.005645752 -0.014587402 -0.056640625 0.02355957 0.045898438 -0.059326172 -0.040527344 0.20800781 0.12890625 0.06298828 -0.171875 -0.24121094 -0.25 -0.052978516 0.04711914 -0.08886719 -0.021484375 0.13671875 0.29492188 0.15136719 -0.0703125 0.07763672 -0.12402344 -0.13476562 0.111816406 -0.063964844 -0.13378906 0.083984375 0.15722656 -0.10546875 0.19726562 -0.11230469 -0.18359375 -0.23535156 0.056884766 0.453125 -0.26757812 0.010009766 0.33203125 0.096191406 0.39453125 -0.018554688 0.061035156 0.063964844 -0.07128906 -0.09423828 0.265625 -0.1640625 0.056640625 0.037841797 0.24804688 -0.171875 -0.006591797 0.123046875 -0.025268555 -0.28125 -0.17382812 -0.046142578 -0.015075684 -0.05810547 -0.13085938 0.10058594 -0.07763672 0.421875 -0.16796875 -0.15527344 -0.103027344 -0.29296875 0.049804688 -0.07763672 0.10888672 -0.26367188 0.029907227 0.052734375 0.17675781 0.29101562 -0.21386719 -0.21191406 -0.09033203 -0.022216797 -0.12695312 -0.055419922 -0.068359375 0.265625 -0.1640625 -0.011169434 0.07373047 0.015625 0.04711914 -0.071777344 -0.064453125 0.20800781 -0.0703125 0.19921875 0.072265625 0.0009422302 -0.08496094 0.07324219 0.11669922 0.023803711 -0.06738281 -0.17871094 -0.15820312 -0.044433594 -0.21777344 0.040283203 0.04638672 0.02758789 0.0024719238 -0.0034637451 0.08691406 -0.12402344 -0.037109375 0.060546875 -0.1171875 0.111328125 0.003189087 -0.11230469 -0.07128906 -0.043701172 -0.265625 0.053955078 -0.08935547 0.15820312 0.056640625 -0.23925781 0.06591797 0.017211914 -0.13574219 -0.23144531 -0.296875 0.21777344 0.068847656 0.036621094 -0.021240234 0.16210938 0.09863281 -0.18652344 -0.012817383 -0.030029297 0.012878418 0.09423828 0.22753906 0.00982666 -0.1796875 0.30078125 -0.09472656 -0.07910156 -0.34765625 -0.1796875 -0.03930664 0.039794922
4 0.03881836 -0.07470703 0.03466797 0.06738281 -0.05078125 -0.040771484 0.14648438 -0.063964844 0.09277344 0.13183594 -0.044189453 -0.0071105957 0.04638672 -0.09667969 -0.07128906 -0.056884766 0.067871094 0.088378906 -0.009338379 0.03955078 -0.12890625 -0.16796875 0.0066223145 -0.064941406 0.018188477 0.067871094 -0.0625 -0.0062561035 0.115234375 -0.023803711 -0.24804688 -0.16699219 -0.080078125 -0.39648438 -0.22753906 0.01977539 -0.10888672 0.15820312 -0.014221191 0.140625 0.10253906 -0.07470703 -0.033691406 0.07373047 0.020874023 0.171875 0.041992188 -0.056152344 -0.00592041 0.08935547 -0.24902344 0.14257812 0.12158203 -0.04321289 -0.110839844 0.057861328 -0.16796875 -0.09472656 -0.15332031 -0.030151367 -0.14941406 0.041259766 -0.12402344 -0.19921875 0.048095703 0.09082031 -0.03930664 0.15722656 0.2578125 0.17089844 0.0012359619 -0.140625 0.07421875 -0.080566406 0.17675781 0.122558594 0.06591797 -0.21972656 0.043945312 -0.021850586 -0.072265625 -0.10498047 0.07519531 0.056152344 0.002166748 -0.005584717 -0.091796875 0.15429688 0.07421875 -0.016479492 -0.140625 0.17675781 0.016967773 -0.030883789 0.0546875 0.025390625 -0.024902344 0.07470703 0.106933594 0.1875 0.087890625 0.030395508 -0.012756348 -0.13476562 -0.03955078 -0.08544922 -0.0072021484 -0.19824219 -0.067871094 -0.171875 0.026367188 -0.12597656 -0.15234375 -0.17382812 -0.03564453 0.11425781 0.20410156 0.080566406 -0.017333984 0.09863281 0.008666992 0.033447266 0.103027344 -0.06640625 0.21972656 -0.0011672974 0.16015625 0.19042969 0.10595703 0.10449219 0.041503906 0.055908203 -0.024658203 -0.040039062 -0.20117188 0.011108398 0.009155273 0.075683594 0.087890625 0.29296875 0.0065307617 0.22949219 0.14355469 -0.001335144 -0.025024414 -0.072265625 0.19042969 0.08300781 -0.027709961 -0.057617188 0.22558594 -0.078125 -0.14355469 -0.011474609 -0.20214844 0.13867188 -0.010986328 0.08935547 -0.063964844 0.125 -0.08105469 -0.008911133 0.20410156 0.09863281 0.018066406 0.1796875 0.17285156 0.1875 0.018554688 0.008239746 -0.096191406 -0.13769531 -0.0075683594 -0.13183594 -0.17382812 -0.048095703 0.08300781 -0.13476562 -0.04736328 0.04711914 -0.14355469 -0.09667969 -0.012939453 0.34765625 0.032958984 -0.118652344 0.16894531 0.060546875 0.30273438 -0.25 0.09277344 -0.19433594 0.107910156 -0.21191406 -0.09375 0.05126953 -0.055908203 0.15527344 -0.09863281 -0.25 -0.31054688 -0.07373047 -0.032226562 -0.06738281 0.0056762695 -0.05859375 -0.078125 0.11230469 0.014343262 0.021850586 0.05883789 0.0008125305 0.08251953 -0.12890625 -0.14355469 0.14746094 0.1875 -0.16699219 0.015625 -0.15625 -0.072265625 -0.02709961 0.08251953 0.09863281 -0.009887695 -0.076660156 -0.30078125 0.067871094 -0.007873535 -0.09277344 -0.01928711 0.061767578 0.0030059814 0.20605469 -0.13378906 0.091796875 0.087402344 -0.21777344 -0.049072266 -0.080078125 -0.115234375 0.27734375 0.13085938 -0.13378906 -0.010925293 -0.063964844 0.07763672 -0.01940918 0.17285156 -0.10107422 0.07861328 0.09082031 -0.18359375 0.019897461 0.19433594 0.037353516 0.08691406 -0.21289062 0.032470703 -0.07373047 0.07128906 -0.07763672 -0.046142578 0.034423828 0.07128906 0.05493164 0.07373047 0.064453125 -0.09716797 0.05908203 0.18066406 0.008972168 0.063964844 -0.17578125 0.17675781 -0.06347656 -0.15136719 0.087402344 0.064941406 0.119628906 0.10498047 0.13183594 -0.06738281 0.07763672 0.12207031 -0.20703125 -0.0059509277 0.1796875 -0.033203125 0.12695312 0.055664062 -0.026123047 -0.16308594 0.055908203 -0.023925781 0.091796875 -0.22558594 -0.15234375 -0.056396484 0.11816406
4th 0.34570312 0.055664062 0.16210938 0.22265625 -0.044433594 -0.13769531 -0.40820312 0.01574707 0.12060547 0.12402344 -0.10058594 -0.08105469 -0.04272461 0.106933594 0.08642578 -0.05419922 0.15429688 -0.26953125 -0.14550781 -0.096191406 -0.05444336 -0.16308594 0.014221191 -0.118652344 -0.036621094 -0.15332031 0.21972656 0.033691406 0.0065612793 0.30273438 -0.18457031 -0.19335938 -0.048583984 -0.068359375 -0.01977539 0.03149414 0.05444336 -0.056396484 -0.07421875 -0.05419922 -0.115722656 -0.040283203 0.07373047 0.11621094 0.17578125 0.171875 -0.064453125 -0.091308594 -0.020385742 0.099121094 0.12011719 0.09472656 0.29101562 0.2109375 -0.071777344 0.16992188 0.012207031 -0.021240234 -0.1328125 -0.06225586 -0.13183594 -0.21582031 -0.15039062 -0.22949219 -0.17480469 0.026977539 0.003616333 0.10888672 0.27539062 0.2578125 0.203125 -0.21679688 0.11328125 -0.045166016 0.037109375 -0.061035156 -0.053222656 -0.17089844 0.10058594 -0.0036773682 0.084472656 -0.12402344 0.04736328 -0.25390625 0.1015625 -0.21777344 0.024780273 0.23730469 0.041748047 0.15429688 0.087890625 -0.12890625 -0.032226562 -0.2578125 -0.17089844 -0.008544922 -0.10498047 0.015319824 0.047607422 0.3671875 -0.024780273 -0.29101562 0.028564453 -0.123535156 0.15722656 -0.05078125 -0.057373047 -0.30078125 -0.18457031 -0.140625 0.13574219 0.09082031 -0.071777344 -0.030273438 0.096191406 0.00075531006 -0.05859375 -0.07324219 0.052001953 0.040771484 -0.20507812 -0.12158203 -0.041992188 -0.0024719238 0.18066406 -0.11376953 -0.03515625 -0.036132812 0.051513672 0.053222656 0.084472656 -0.18066406 -0.099121094 -0.06640625 -0.34375 -0.06591797 0.049316406 -0.008666992 -0.06982422 0.1328125 0.01940918 0.17089844 0.10449219 -0.21777344 -0.16992188 0.265625 0.060546875 0.10644531 -0.01940918 0.020874023 -0.08691406 0.05126953 -0.040283203 -0.033935547 -0.055419922 0.21289062 0.08544922 -0.044921875 -0.22558594 -0.19335938 -0.24707031 0.036376953 0.119628906 -0.13574219 0.12060547 0.068847656 0.33203125 0.1640625 0.0099487305 0.07373047 -0.16503906 -0.07910156 0.18554688 -0.0115356445 -0.22167969 0.14746094 -0.012634277 -0.0024871826 0.15136719 -0.125 -0.17089844 -0.24023438 0.014953613 0.41601562 -0.25195312 -0.057128906 0.30664062 0.100097656 0.45507812 0.15332031 0.007080078 0.08251953 -0.07470703 -0.10253906 0.25 -0.22363281 0.021118164 0.043945312 0.21582031 -0.14453125 -0.053710938 0.10644531 -0.11035156 -0.25585938 -0.109375 -0.071777344 -0.041259766 -0.05493164 -0.12060547 0.140625 -0.106933594 0.3671875 -0.15234375 -0.16503906 -0.029418945 -0.21386719 0.15820312 -0.08984375 0.11816406 -0.26171875 0.029052734 0.09716797 0.13183594 0.20117188 -0.30273438 -0.15429688 -0.0028686523 -0.044433594 -0.049560547 0.02331543 -0.0546875 0.19335938 -0.2578125 0.061035156 0.04296875 0.125 0.014343262 -0.061523438 -0.09863281 0.025756836 -0.080078125 0.18359375 0.038330078 -0.045654297 -0.047607422 0.067871094 0.15722656 -0.007293701 -0.03540039 -0.203125 -0.078125 -0.08251953 -0.14746094 -0.032958984 0.08984375 0.07324219 -0.0154418945 -0.0035552979 0.0546875 -0.061279297 -0.035888672 0.025146484 -0.03112793 0.10888672 0.037109375 -0.08496094 -0.11669922 -0.03955078 -0.265625 0.038085938 -0.079589844 0.17773438 0.16894531 -0.21777344 0.10644531 -0.067871094 -0.123046875 -0.19238281 -0.34960938 0.16503906 0.115234375 0.030395508 -0.092285156 0.13769531 0.071777344 -0.21679688 0.00064086914 0.05834961 0.055419922 0.08642578 0.171875 -0.03564453 -0.29492188 0.23632812 -0.060058594 -0.096191406 -0.33398438 -0.18847656 0.014709473 0.027709961
5 0.114746094 -0.05078125 0.06738281 0.09667969 -0.026245117 0.007385254 0.16699219 -0.053955078 0.16992188 0.07128906 -0.08251953 -0.011352539 0.08105469 -0.125 -0.0859375 -0.05908203 0.068847656 0.03857422 -0.037597656 0.095703125 -0.18554688 -0.22167969 0.015991211 -0.005126953 0.00970459 0.045654297 -0.09765625 -0.0009536743 0.12402344 -0.008850098 -0.26757812 -0.18359375 -0.080566406 -0.40039062 -0.22167969 -0.011047363 -0.055908203 0.122558594 0.012451172 0.09472656 0.05493164 -0.08886719 0.028808594 0.046875 0.06591797 0.07373047 0.028076172 -0.0025939941 -0.053466797 0.03857422 -0.22363281 0.118652344 0.052490234 -0.111816406 -0.14746094 0.06298828 -0.12597656 -0.055419922 -0.18847656 -0.013671875 -0.13085938 0.022583008 -0.07763672 -0.19726562 0.07373047 0.087402344 -0.0031585693 0.16796875 0.25390625 0.18945312 0.03955078 -0.15039062 0.087890625 0.005554199 0.13378906 0.09716797 0.020507812 -0.125 0.010437012 0.009338379 -0.05883789 -0.15332031 0.09423828 0.13964844 -0.053466797 -0.0126953125 -0.064453125 0.109375 0.08691406 -0.024902344 -0.15917969 0.15917969 -0.0050964355 -0.055908203 0.045410156 0.07714844 -0.06591797 0.060058594 0.06298828 0.13964844 0.028808594 -0.001953125 -0.078125 -0.07910156 -0.022583008 -0.115722656 -0.0013198853 -0.23632812 -0.061523438 -0.15917969 0.021484375 -0.13964844 -0.15625 -0.17382812 -0.010192871 0.061279297 0.20507812 0.11035156 0.00074005127 0.06347656 -0.037109375 0.051513672 0.103515625 -0.08300781 0.19433594 0.057861328 0.15039062 0.16503906 0.18359375 0.103515625 0.07421875 0.072753906 0.041259766 -0.099121094 -0.16796875 -0.056884766 -0.032714844 0.030151367 0.0020141602 0.28515625 -0.022460938 0.11279297 0.04736328 0.06225586 -0.025268555 -0.10449219 0.234375 0.040527344 0.032226562 -0.080078125 0.2734375 -0.048339844 -0.16113281 0.037597656 -0.1953125 0.14160156 0.024047852 0.11425781 -0.10107422 0.12060547 -0.028076172 -0.016357422 0.2734375 0.12890625 -0.017822266 0.17871094 0.1328125 0.13476562 -0.040283203 -0.045410156 -0.10644531 -0.09472656 -0.03100586 -0.08886719 -0.23535156 -0.115722656 0.10644531 -0.064453125 0.008605957 0.06542969 -0.06689453 -0.13769531 -0.012756348 0.3125 -0.008361816 -0.1328125 0.15917969 0.080566406 0.32617188 -0.26757812 0.07080078 -0.16113281 0.10839844 -0.23046875 -0.06640625 0.06738281 -0.036376953 0.15136719 -0.14550781 -0.27539062 -0.2890625 -0.03125 0.045410156 -0.06225586 0.017211914 -0.047851562 -0.021118164 0.106933594 -0.024780273 0.032470703 0.071777344 -0.010437012 0.048583984 -0.11425781 -0.14550781 0.25 0.17773438 -0.13183594 0.0045776367 -0.13964844 -0.07763672 -0.005279541 0.05859375 0.029052734 0.055419922 -0.08154297 -0.25390625 0.10107422 -0.01586914 -0.15625 -0.05078125 -0.0020141602 -0.006439209 0.21386719 -0.14160156 0.140625 -0.01586914 -0.20898438 -0.055419922 -0.12988281 -0.11621094 0.29101562 0.13769531 -0.16308594 0.0057678223 -0.12207031 0.076171875 -0.064453125 0.15625 -0.06738281 0.13085938 0.0859375 -0.12060547 0.012268066 0.21386719 0.072753906 0.110839844 -0.15234375 0.014709473 -0.06738281 0.111328125 -0.083496094 -0.07128906 -0.03491211 0.08691406 0.05493164 0.010009766 0.03125 -0.12402344 -0.041015625 0.08935547 0.01965332 0.067871094 -0.122558594 0.2265625 0.006652832 -0.20507812 0.09423828 0.09326172 0.15136719 0.10058594 0.080078125 -0.091796875 0.048339844 0.14648438 -0.19824219 0.001953125 0.17871094 -0.042236328 0.095214844 0.064941406 -0.03881836 -0.13085938 0.072265625 -0.04272461 0.11328125 -0.12792969 -0.08642578 -0.056640625 0.08154297
5th 0.32617188 -0.006286621 0.15625 0.114746094 -0.060058594 -0.052490234 -0.38476562 -0.064941406 0.09375 0.12988281 -0.09765625 0.017333984 -0.032958984 0.13769531 0.10498047 -0.06689453 0.12011719 -0.19628906 -0.12792969 -0.04296875 -0.12597656 -0.21972656 -0.017700195 -0.08496094 0.01373291 -0.23632812 0.099121094 0.056884766 0.008850098 0.19824219 -0.1953125 -0.15625 0.092285156 0.010620117 0.043945312 -0.0012969971 0.04711914 -0.01361084 -0.025146484 -0.1171875 -0.13183594 -0.0029754639 0.018798828 0.17773438 0.19335938 0.21191406 -0.025512695 -0.036865234 -0.0014038086 0.21484375 0.14257812 0.17773438 0.32421875 0.12207031 -0.02319336 0.20019531 -0.06738281 -0.029541016 -0.14941406 -0.12792969 -0.12988281 -0.22558594 -0.091308594 -0.24414062 -0.20703125 0.011657715 -0.05834961 0.119140625 0.23730469 0.31835938 0.19042969 -0.17773438 0.15527344 -0.037109375 -0.04248047 -0.03881836 -0.119140625 -0.125 0.059570312 0.027709961 0.060058594 -0.15429688 0.049804688 -0.27734375 0.18847656 -0.16894531 -0.022949219 0.17773438 0.016357422 0.16015625 0.014587402 -0.008605957 -0.0066833496 -0.21679688 -0.13574219 0.034179688 -0.072265625 -0.06347656 0.0019989014 0.26953125 -0.02746582 -0.20214844 -0.21777344 -0.12451172 0.11230469 -0.03466797 -0.12011719 -0.33789062 -0.100097656 -0.06640625 0.076660156 0.10205078 -0.11230469 -0.06542969 0.06982422 0.07861328 -0.037841797 -0.14746094 0.12988281 0.24609375 -0.26171875 -0.14550781 -0.09082031 0.0078125 0.031982422 -0.18847656 -0.17871094 0.028808594 0.14550781 0.072753906 0.041015625 -0.19726562 -0.06347656 -0.12207031 -0.30859375 -0.031982422 0.025756836 -0.055664062 -0.079589844 0.21582031 0.024658203 0.1484375 0.04321289 -0.27148438 -0.19921875 0.30078125 0.11279297 0.12597656 -0.04638672 -0.061279297 -0.12109375 -0.04711914 0.041503906 -0.15234375 0.07080078 0.19921875 0.1640625 -0.0077819824 -0.17773438 -0.12988281 -0.18457031 -0.02355957 0.12011719 -0.1015625 0.041992188 0.064941406 0.26757812 0.123535156 -0.020507812 0.107910156 -0.17285156 -0.04711914 0.13671875 0.018310547 -0.12695312 0.16992188 0.037597656 -0.10253906 0.26171875 -0.08544922 -0.07763672 -0.13085938 0.016235352 0.40820312 -0.20410156 0.008300781 0.25976562 0.23632812 0.42382812 0.056152344 0.014160156 0.18652344 -0.020263672 -0.017822266 0.27929688 -0.24511719 0.14453125 0.07470703 0.28320312 -0.16992188 -0.018310547 0.08300781 -0.048339844 -0.24804688 -0.21191406 -0.076171875 -0.11621094 0.030029297 -0.125 0.076171875 -0.111816406 0.34375 -0.12597656 -0.34375 -0.10449219 -0.21191406 0.103027344 -0.12695312 0.095214844 -0.22363281 -0.009460449 0.115234375 0.15820312 0.3515625 -0.19824219 -0.123046875 -0.076171875 -0.00982666 -0.061035156 -0.1015625 -0.06689453 0.08642578 -0.26757812 0.14648438 0.061279297 0.171875 0.0072631836 -0.12988281 -0.028686523 0.024291992 0.016723633 0.1875 -0.040527344 -0.076660156 -0.041992188 0.080078125 0.23730469 0.048583984 -0.07324219 -0.19628906 -0.17382812 -0.100097656 -0.23339844 -0.11376953 0.08544922 0.10498047 -0.036621094 0.050048828 0.07910156 -0.09082031 -0.022705078 -0.02709961 -0.15722656 0.06298828 0.11621094 -0.06347656 -0.07080078 -0.08300781 -0.30859375 -0.068359375 -0.068359375 0.18457031 0.09472656 -0.12402344 0.115234375 -0.023925781 -0.14160156 -0.20703125 -0.3359375 0.18066406 0.040527344 0.0625 -0.07128906 0.21386719 0.05517578 -0.14257812 -0.052490234 0.052246094 0.1015625 0.091308594 0.063964844 -0.21386719 -0.17871094 0.1328125 0.002822876 -0.09375 -0.34960938 -0.1484375 -0.0154418945 0.08496094
6 0.12597656 -0.03149414 0.01574707 0.053222656 -0.0015563965 0.025268555 0.18554688 -0.014404297 0.12597656 0.12890625 -0.09472656 -0.02709961 0.10839844 -0.15234375 -0.021362305 -0.05078125 0.055908203 0.047607422 -0.00793457 0.008850098 -0.21582031 -0.13769531 0.031982422 0.0038146973 -0.04663086 -0.0076293945 -0.05908203 -0.006072998 0.17382812 -0.036132812 -0.1875 -0.25585938 -0.087890625 -0.41210938 -0.23242188 0.017211914 -0.092285156 0.13183594 -0.044189453 0.05883789 0.09814453 -0.13964844 0.029418945 0.100097656 0.052734375 0.12402344 -0.01171875 0.021240234 -0.026367188 0.015563965 -0.19140625 0.16699219 0.034423828 -0.10644531 -0.12451172 0.044433594 -0.16796875 -0.091796875 -0.1875 -0.08154297 -0.20410156 -0.024536133 -0.16601562 -0.19824219 0.12402344 0.115722656 -0.007751465 0.22753906 0.21386719 0.20605469 0.036376953 -0.18457031 0.10107422 -0.0023040771 0.23339844 0.12988281 -0.021240234 -0.203125 0.036621094 0.053466797 -0.025878906 -0.09814453 0.12695312 0.1328125 -0.036621094 -0.07373047 -0.07714844 0.06982422 0.14355469 -0.072265625 -0.12988281 0.07324219 0.04296875 -0.035888672 0.021972656 0.04321289 -0.026123047 0.056152344 0.014709473 0.067871094 0.06591797 0.016113281 0.0034484863 -0.122558594 -0.06542969 -0.087402344 -0.0078125 -0.22851562 -0.103027344 -0.18066406 0.051513672 -0.11621094 -0.14453125 -0.16015625 -0.009521484 0.018920898 0.20800781 0.12207031 0.033447266 0.033691406 -0.037353516 0.0055236816 0.060546875 -0.11816406 0.18945312 0.059326172 0.16308594 0.15625 0.15527344 0.0859375 0.036621094 0.15039062 0.0041503906 -0.09814453 -0.14257812 -0.083496094 -0.014770508 0.061035156 0.060791016 0.2734375 -0.0063476562 0.21875 0.12060547 0.004058838 -0.044677734 -0.045410156 0.23828125 0.05517578 0.06640625 -0.036865234 0.31054688 -0.037109375 -0.1953125 0.06689453 -0.22265625 0.18554688 -0.010070801 0.110839844 -0.045410156 0.099609375 0.017944336 -0.022216797 0.24316406 0.08984375 0.03881836 0.20800781 0.15234375 0.13183594 -0.083984375 -0.051757812 -0.14355469 -0.12158203 -0.040771484 -0.0859375 -0.17675781 -0.17382812 0.1484375 -0.037841797 -0.01550293 0.107421875 -0.032958984 -0.13574219 0.013244629 0.27539062 0.0074157715 -0.16015625 0.16015625 0.052001953 0.3046875 -0.28320312 0.115234375 -0.17089844 0.107910156 -0.16601562 -0.048095703 0.06640625 -0.079589844 0.16796875 -0.07128906 -0.26757812 -0.24316406 -0.071777344 0.068847656 -0.03955078 0.059570312 -0.068847656 0.067871094 0.087890625 0.019165039 0.060058594 0.006439209 -0.06689453 0.051513672 -0.17089844 -0.18457031 0.19335938 0.1875 -0.17285156 0.037841797 -0.11230469 -0.10595703 -0.045654297 0.020385742 0.026733398 0.052490234 -0.09375 -0.33398438 0.12597656 -0.0016403198 -0.14550781 -0.036376953 0.017211914 -0.048583984 0.23828125 -0.096191406 0.1796875 -0.0032043457 -0.2578125 -0.125 -0.095214844 -0.07373047 0.35351562 0.110839844 -0.14746094 0.037353516 -0.061767578 0.07519531 -0.07519531 0.13378906 -0.060058594 0.12597656 0.068847656 -0.15039062 0.008605957 0.26171875 0.022949219 0.10888672 -0.16894531 0.0078125 -0.07519531 0.15234375 -0.07470703 -0.0703125 0.0030212402 0.06591797 0.027832031 0.045898438 0.055419922 -0.12695312 -0.003540039 0.15917969 0.059570312 0.049804688 -0.12988281 0.26367188 0.002456665 -0.23242188 0.10546875 0.10107422 0.078125 0.07763672 0.072753906 -0.08496094 0.053466797 0.07324219 -0.21875 0.000957489 0.17871094 0.008056641 0.111328125 0.06738281 -0.012573242 -0.11669922 0.068359375 -0.059570312 0.055908203 -0.15722656 -0.083496094 -0.095214844 0.041748047
6th 0.32617188 0.002960205 0.1484375 0.20019531 -0.02368164 -0.08691406 -0.47070312 -0.03564453 0.12695312 0.10888672 -0.09472656 -0.018920898 -0.07128906 0.059814453 0.13183594 -0.052246094 0.08984375 -0.18261719 -0.110839844 0.030395508 -0.032714844 -0.22070312 0.025878906 -0.078125 0.03540039 -0.24511719 0.14257812 0.07861328 0.03564453 0.22265625 -0.24316406 -0.22265625 0.096191406 -0.030029297 0.020874023 -0.06738281 0.03491211 -0.04345703 0.006500244 -0.040527344 -0.21484375 -0.026123047 0.068359375 0.15039062 0.13476562 0.19726562 -0.07763672 -0.091308594 -0.040039062 0.24902344 0.080566406 0.14550781 0.26757812 0.1796875 -0.0034942627 0.21679688 -0.08984375 -0.041503906 -0.109375 -0.09277344 -0.029418945 -0.23535156 -0.06542969 -0.21484375 -0.21289062 0.037109375 -0.0005455017 0.1875 0.27148438 0.33789062 0.19824219 -0.17285156 0.17480469 -0.0028076172 0.05908203 0.006713867 -0.10644531 -0.10888672 0.037109375 -0.02331543 0.1328125 -0.13378906 0.029296875 -0.23046875 0.19628906 -0.2109375 0.017089844 0.13085938 0.043945312 0.19628906 -0.03515625 -0.07519531 0.0059509277 -0.12792969 -0.15234375 0.071777344 -0.10058594 -0.037353516 0.033447266 0.23730469 0.038330078 -0.18164062 -0.2109375 -0.15136719 0.12158203 -0.060302734 -0.17480469 -0.26757812 -0.119628906 -0.12988281 0.16992188 0.087402344 -0.115234375 -0.12109375 0.053955078 0.020751953 -0.030395508 -0.16796875 0.14550781 0.1796875 -0.28125 -0.07421875 -0.10449219 0.045654297 -0.007019043 -0.2265625 -0.18652344 -0.037353516 0.080078125 0.083984375 0.043945312 -0.13964844 -0.08691406 -0.12158203 -0.33789062 -0.057373047 0.034179688 -0.13183594 -0.07421875 0.25195312 -0.024780273 0.16601562 0.04321289 -0.28515625 -0.17773438 0.23339844 0.1484375 0.0703125 0.049316406 -0.05078125 -0.05834961 0.04296875 0.032958984 -0.13378906 -0.0146484375 0.19433594 0.13964844 -0.0031280518 -0.20507812 -0.19335938 -0.21972656 -0.04711914 0.15234375 -0.11669922 0.047851562 0.06225586 0.26367188 0.06201172 -0.018432617 0.076660156 -0.17871094 -0.080078125 0.19433594 -0.001953125 -0.11328125 0.08251953 0.017822266 -0.033203125 0.30664062 -0.087402344 -0.10888672 -0.13085938 0.060791016 0.48828125 -0.26171875 -0.019042969 0.24316406 0.19921875 0.39257812 0.08154297 0.014221191 0.10107422 -0.11328125 -0.08642578 0.24804688 -0.19238281 0.103515625 0.06689453 0.18847656 -0.16308594 -0.080566406 0.013916016 -0.049560547 -0.27929688 -0.09082031 -0.09765625 -0.087402344 0.096191406 -0.15625 0.06640625 -0.09277344 0.31445312 -0.20605469 -0.30859375 -0.16601562 -0.23242188 0.06982422 -0.08935547 0.15625 -0.23730469 0.0051574707 0.05102539 0.14550781 0.34375 -0.21289062 -0.16992188 -0.06591797 -0.033447266 -0.123046875 -0.063964844 0.04248047 0.08886719 -0.20410156 0.12695312 0.05053711 0.12597656 0.031982422 -0.038085938 -0.0071105957 0.030883789 -0.05493164 0.15917969 0.019042969 -0.075683594 -0.032470703 0.08496094 0.18457031 -0.010253906 -0.05810547 -0.16601562 -0.025512695 -0.106933594 -0.17089844 -0.07128906 0.083984375 0.08642578 0.0019836426 0.06298828 0.083984375 -0.07080078 0.03955078 -0.053222656 -0.12988281 0.103515625 0.08691406 -0.06225586 -0.020385742 -0.15527344 -0.25 -0.024536133 -0.055419922 0.15429688 0.060791016 -0.095214844 0.125 -0.053466797 -0.07470703 -0.24414062 -0.3828125 0.20214844 0.099121094 0.038085938 -0.08886719 0.23535156 0.03466797 -0.15429688 -0.025634766 0.10986328 0.03564453 0.05493164 0.07421875 -0.17285156 -0.15527344 0.16699219 -0.08251953 -0.029541016 -0.35742188 -0.14257812 -0.029785156 0.048828125
7 0.13476562 -0.08691406 -0.009460449 0.038085938 -0.02746582 0.09716797 0.16796875 -0.04272461 0.26367188 0.18261719 -0.09814453 -0.018798828 0.110839844 -0.13476562 -0.05834961 -0.027832031 0.07910156 0.10449219 0.104003906 0.05102539 -0.17382812 -0.20019531 0.0037078857 -0.02319336 0.018798828 0.06347656 0.00049209595 0.010192871 0.16503906 -0.05517578 -0.18359375 -0.2578125 -0.12988281 -0.3515625 -0.21875 0.068359375 -0.032958984 0.087890625 0.016845703 0.027709961 0.0625 -0.1171875 0.056884766 0.08886719 0.091308594 0.13867188 0.0016937256 -0.032958984 -0.04663086 0.119140625 -0.2421875 0.19140625 0.083496094 -0.06640625 -0.13476562 0.028198242 -0.2265625 -0.1171875 -0.18359375 -0.045654297 -0.19042969 -0.01586914 -0.09667969 -0.15136719 0.16894531 0.111816406 0.053955078 0.23925781 0.18359375 0.18945312 0.03930664 -0.16308594 0.18359375 0.031982422 0.16992188 0.046142578 0.0005607605 -0.18359375 0.06298828 0.099121094 -0.021484375 -0.06738281 0.109375 0.15722656 -0.01171875 -0.07080078 -0.06542969 0.046142578 0.10839844 0.036132812 -0.15234375 0.007080078 0.053955078 -0.07080078 0.018554688 0.0703125 -0.06298828 0.11328125 0.09082031 0.07519531 0.052490234 -0.022460938 0.002380371 -0.0859375 -0.12988281 -0.07324219 0.009765625 -0.18457031 -0.123046875 -0.17382812 0.072265625 -0.11035156 -0.20703125 -0.23046875 0.024902344 0.023803711 0.15039062 0.08300781 0.07080078 0.09667969 -0.052490234 0.05126953 0.13867188 -0.15234375 0.12109375 0.068847656 0.10546875 0.15527344 0.19238281 0.06591797 0.016113281 0.056884766 0.0047302246 -0.09375 -0.08544922 -0.0703125 -0.006378174 -0.017089844 -0.060302734 0.20898438 -0.020263672 0.1796875 0.14550781 -0.018676758 -0.014038086 -0.071777344 0.21972656 0.071777344 0.07519531 0.014038086 0.21289062 -0.075683594 -0.13867188 0.047851562 -0.1875 0.14550781 -0.048095703 0.14941406 -0.04296875 0.091796875 -0.0022735596 -0.011779785 0.12451172 0.12207031 0.017578125 0.24511719 0.08105469 0.15234375 0.002456665 -0.037353516 -0.13378906 -0.16503906 -0.114746094 -0.12890625 -0.21484375 -0.15820312 0.14257812 -0.013183594 -0.010864258 0.017333984 -0.06542969 -0.092285156 0.0076904297 0.22949219 -0.019042969 -0.083984375 0.1640625 0.022583008 0.32617188 -0.32617188 0.15234375 -0.13964844 0.08251953 -0.103515625 -0.08984375 0.016479492 -0.06347656 0.15917969 -0.15527344 -0.22753906 -0.24707031 -0.011291504 0.06982422 9.727478e-05 0.10058594 -0.057373047 0.072753906 0.11230469 0.03466797 0.025756836 0.002609253 -0.020141602 0.0005836487 -0.12890625 -0.16113281 0.17382812 0.19042969 -0.17773438 0.012023926 -0.203125 -0.10888672 -0.053955078 0.064453125 0.0703125 -0.00982666 -0.1015625 -0.37695312 0.14355469 -0.022460938 -0.123046875 -0.06347656 -0.036865234 -0.07080078 0.2734375 -0.110839844 0.21289062 0.040527344 -0.23535156 -0.08496094 -0.060302734 -0.07714844 0.29492188 0.13671875 -0.114746094 0.006958008 -0.049072266 0.10839844 -0.100097656 0.05078125 -0.030273438 -0.037353516 0.09082031 -0.15722656 -0.04711914 0.24316406 -0.018188477 0.17871094 -0.23242188 -0.015014648 -0.07714844 0.056640625 -0.08642578 0.049316406 -0.06738281 0.064453125 -0.018676758 0.01953125 0.09082031 -0.13378906 0.014770508 0.07714844 0.02722168 0.03955078 -0.056152344 0.23828125 -0.010192871 -0.20605469 0.08251953 0.037597656 0.076171875 0.008239746 0.09033203 -0.09716797 0.07470703 0.08691406 -0.21875 0.020874023 0.17480469 0.0013961792 0.15136719 0.10546875 -0.02355957 -0.075683594 0.075683594 0.012329102 0.028076172 -0.12695312 -0.115234375 -0.06738281 0.0703125
8 0.12792969 -0.055664062 0.03466797 0.05883789 -0.028442383 0.061035156 0.12597656 -0.11425781 0.20507812 0.12060547 -0.14746094 0.00033569336 0.08496094 -0.16601562 -0.10253906 -0.04272461 0.09863281 0.100097656 0.02355957 0.083496094 -0.17675781 -0.17675781 0.046875 -0.028320312 0.012634277 0.024169922 -0.028198242 -0.048339844 0.17773438 -0.033447266 -0.2265625 -0.26367188 -0.12792969 -0.38476562 -0.14453125 0.057128906 0.040771484 0.1015625 0.03149414 0.11328125 0.06591797 -0.03515625 0.051513672 0.07080078 0.10205078 0.14160156 0.031982422 0.0061035156 -0.009887695 0.057373047 -0.23828125 0.12597656 0.060058594 -0.0703125 -0.080566406 0.030761719 -0.16796875 -0.16308594 -0.18945312 -0.035888672 -0.17675781 -0.01574707 -0.15136719 -0.19921875 0.13085938 0.12402344 0.0138549805 0.20800781 0.21484375 0.16894531 0.052001953 -0.21582031 0.107910156 0.03930664 0.2578125 0.11669922 0.061035156 -0.23535156 0.07324219 0.026733398 0.009155273 -0.115234375 0.063964844 0.1328125 -0.017700195 -0.06542969 -0.041748047 0.053466797 0.107421875 0.044433594 -0.21777344 0.049560547 0.040039062 -0.07714844 -0.024169922 0.020629883 -0.046142578 0.0859375 0.08691406 0.030639648 0.056396484 0.019897461 -0.028564453 -0.09326172 -0.052490234 -0.11376953 -0.005859375 -0.23925781 -0.06982422 -0.20410156 0.056396484 -0.15332031 -0.12890625 -0.17089844 -0.060791016 0.052734375 0.20019531 0.051757812 0.07470703 0.06689453 -0.07373047 0.036376953 0.125 -0.1640625 0.17773438 0.022216797 0.103515625 0.19238281 0.24804688 0.13183594 0.030517578 0.0049743652 0.011230469 -0.009460449 -0.15429688 -0.018066406 -0.026611328 -0.012329102 0.028442383 0.23730469 0.011962891 0.1875 0.10888672 0.08300781 0.020019531 -0.09716797 0.20800781 0.08251953 0.017944336 -0.011352539 0.24902344 -0.06982422 -0.076660156 -0.00793457 -0.18554688 0.12597656 -0.0004711151 0.13574219 -0.08203125 0.14648438 0.009094238 -0.04296875 0.17578125 0.119140625 0.041748047 0.18652344 0.14160156 0.10449219 -0.024169922 -0.10058594 -0.13476562 -0.11376953 0.0021972656 -0.07080078 -0.20898438 -0.15527344 0.07519531 -0.015197754 -0.00039100647 0.053222656 -0.031982422 -0.111328125 -0.024658203 0.27734375 -0.040771484 -0.076171875 0.118652344 0.09716797 0.34375 -0.24609375 0.1328125 -0.18652344 0.08691406 -0.12597656 -0.059570312 0.02709961 -0.025512695 0.140625 -0.060302734 -0.24511719 -0.28125 -0.06689453 -0.0067443848 -0.026123047 0.052734375 -0.123535156 0.009216309 0.16503906 -0.007080078 0.080078125 -0.0012207031 -0.0390625 0.033691406 -0.14746094 -0.16308594 0.18261719 0.19824219 -0.08251953 0.034423828 -0.12402344 -0.14160156 -0.026977539 0.019897461 0.076660156 -0.031982422 -0.088378906 -0.2890625 0.140625 -0.020507812 -0.11376953 -0.012023926 0.017333984 -0.061767578 0.24316406 -0.15039062 0.20410156 0.020996094 -0.22265625 -0.07519531 -0.07470703 -0.09277344 0.34570312 0.15136719 -0.11328125 0.0026397705 -0.08691406 0.064941406 -0.13964844 0.111328125 -0.080078125 0.071777344 0.06542969 -0.13867188 -0.010009766 0.2578125 0.014404297 0.18066406 -0.26171875 0.014709473 -0.099609375 0.114746094 -0.059326172 -0.015625 -0.010253906 0.06591797 -0.022460938 0.01373291 0.010375977 -0.057128906 -0.0047302246 0.11328125 -0.012573242 0.045898438 -0.049316406 0.22851562 -0.037109375 -0.21679688 0.07080078 0.06933594 0.11621094 0.0012588501 0.03515625 -0.16699219 0.01574707 0.095214844 -0.29882812 0.044189453 0.19433594 -0.0070495605 0.11621094 0.08496094 -0.041259766 -0.15234375 0.068847656 -0.038330078 0.061767578 -0.1328125 -0.043945312 -0.11328125 0.06347656
8th 0.29492188 0.029418945 0.16308594 0.16210938 -0.10058594 -0.11230469 -0.47851562 -0.011779785 0.125 0.047851562 -0.06689453 0.012207031 -0.04248047 0.07763672 0.16308594 -0.00592041 0.15917969 -0.15039062 -0.106933594 0.061523438 0.008361816 -0.20507812 -0.019165039 -0.11035156 0.07470703 -0.20898438 0.17382812 0.10546875 0.04345703 0.19433594 -0.22949219 -0.19628906 0.051757812 -0.02368164 0.006439209 -0.040771484 0.034423828 -0.017456055 0.011962891 -0.061279297 -0.18554688 -0.040283203 0.025146484 0.13867188 0.22949219 0.20703125 -0.067871094 -0.05810547 -0.06591797 0.23632812 0.10644531 0.22851562 0.25585938 0.16699219 -0.0025939941 0.19335938 -0.053222656 -0.0390625 -0.2109375 -0.14941406 -0.14355469 -0.22363281 -0.03564453 -0.19238281 -0.20800781 0.076660156 0.013549805 0.20410156 0.25390625 0.31835938 0.14453125 -0.12451172 0.18261719 -0.0022125244 -0.010803223 0.03857422 -0.08544922 -0.16015625 -0.0021972656 -0.047607422 0.110839844 -0.11035156 -0.10888672 -0.203125 0.17382812 -0.21777344 -0.025634766 0.15429688 0.057128906 0.12890625 -0.04272461 -0.038085938 0.068359375 -0.18164062 -0.15527344 0.08935547 -0.10107422 -0.018432617 0.06738281 0.23242188 0.012817383 -0.14648438 -0.25585938 -0.16113281 0.107910156 -0.032470703 -0.15722656 -0.3125 -0.21289062 -0.04345703 0.20117188 0.11767578 -0.17285156 -0.071777344 0.056152344 0.017333984 -0.07128906 -0.10058594 0.22558594 0.13183594 -0.23535156 -0.115722656 -0.05834961 0.084472656 -0.024414062 -0.23828125 -0.19921875 -0.014404297 0.119628906 0.021850586 0.09033203 -0.092285156 -0.012512207 -0.123535156 -0.33398438 -0.04663086 0.028198242 -0.12695312 -0.12988281 0.2578125 -0.037109375 0.14160156 0.083496094 -0.31835938 -0.171875 0.24316406 0.09033203 0.049316406 -0.026367188 -0.11621094 -0.140625 0.030395508 -0.014343262 -0.15136719 -0.016113281 0.103027344 0.12207031 -0.024780273 -0.20214844 -0.15332031 -0.20605469 -0.030761719 0.16210938 -0.11279297 0.038330078 0.041259766 0.31835938 0.07421875 0.013000488 0.079589844 -0.12597656 -0.01965332 0.1484375 -0.011169434 -0.103027344 0.095703125 0.11621094 -0.09326172 0.34375 -0.041992188 -0.11230469 -0.203125 0.0076904297 0.42773438 -0.23632812 -0.0018692017 0.2265625 0.16601562 0.40234375 0.115722656 0.04638672 0.16015625 -0.072753906 -0.06982422 0.25585938 -0.16894531 0.18164062 0.063964844 0.24707031 -0.21386719 -0.052734375 0.071777344 -0.07470703 -0.26171875 -0.09667969 -0.11279297 -0.07373047 0.09326172 -0.16015625 0.10205078 -0.10595703 0.26953125 -0.23828125 -0.36132812 -0.13671875 -0.13183594 0.123535156 -0.016235352 0.13378906 -0.234375 0.07421875 0.021240234 0.18554688 0.35546875 -0.20800781 -0.16699219 -0.024902344 -0.06689453 -0.115722656 -0.0390625 0.06542969 0.06933594 -0.22167969 0.1328125 0.0859375 0.10888672 -0.015258789 -0.099609375 0.06738281 0.048095703 -0.055419922 0.18554688 -0.003692627 -0.12060547 -0.095214844 0.080078125 0.21972656 -0.030029297 -0.12890625 -0.25585938 -0.036132812 -0.07324219 -0.16015625 -0.08984375 0.10107422 -0.0026245117 -0.076171875 -0.0034484863 0.140625 -0.10595703 -0.025512695 0.003250122 -0.091796875 0.10449219 0.1171875 -0.10644531 -0.049804688 -0.15917969 -0.203125 -0.032226562 0.0041503906 0.096191406 0.10253906 -0.0703125 0.080078125 -0.016967773 -0.08544922 -0.23828125 -0.30859375 0.21191406 0.08691406 0.03125 -0.109375 0.27734375 -0.04711914 -0.22167969 -0.007873535 0.11230469 0.037109375 0.09472656 0.09033203 -0.16601562 -0.17285156 0.18066406 -0.068359375 -0.06347656 -0.390625 -0.13183594 -0.099121094 0.08642578
9 0.140625 -0.02722168 0.032958984 0.068847656 -0.057861328 0.045410156 0.107421875 -0.032470703 0.26953125 0.09423828 -0.02722168 -0.0024108887 0.10595703 -0.15722656 -0.02368164 -0.044677734 0.106933594 0.039794922 0.091308594 0.010375977 -0.24511719 -0.092285156 0.0047302246 -0.076171875 0.072265625 0.10449219 -0.017089844 -0.12695312 0.20898438 -0.0625 -0.20800781 -0.27539062 -0.18066406 -0.37109375 -0.23925781 0.05883789 -0.041503906 0.10058594 0.08154297 0.060546875 0.088378906 -0.099609375 0.056152344 0.06640625 0.09033203 0.09326172 0.050048828 0.032470703 -0.036621094 0.11376953 -0.24121094 0.07763672 0.04663086 -0.057128906 -0.10449219 0.037841797 -0.21582031 -0.11279297 -0.17382812 -0.053222656 -0.15429688 0.05517578 -0.0095825195 -0.21191406 0.17382812 0.103027344 0.02355957 0.14453125 0.20214844 0.15625 0.021728516 -0.20019531 0.110839844 0.015625 0.18261719 0.09423828 0.007537842 -0.1953125 0.060546875 0.035888672 0.008361816 -0.110839844 0.15039062 0.104003906 -0.10546875 -0.13476562 -0.09472656 0.020385742 0.060791016 0.011291504 -0.18359375 0.024169922 0.053222656 -0.052734375 0.10839844 0.05834961 -0.04711914 0.063964844 0.119140625 0.111816406 0.08105469 -0.029052734 -0.036865234 -0.016967773 -0.080078125 -0.104003906 -0.0023040771 -0.17675781 -0.12597656 -0.203125 0.05078125 -0.119140625 -0.16113281 -0.15136719 -0.020996094 0.040771484 0.119140625 0.026245117 0.053955078 0.14648438 -0.107910156 0.080078125 0.14941406 -0.10449219 0.14257812 -0.014465332 0.06298828 0.088378906 0.23730469 0.10058594 0.020507812 -0.0023345947 -0.020141602 -0.080566406 -0.12890625 -0.09716797 0.10888672 -0.01965332 0.07128906 0.18164062 -0.072265625 0.21484375 0.064453125 -0.022216797 -0.08300781 -0.11230469 0.16894531 0.06591797 -0.029296875 -0.06347656 0.19726562 -0.06542969 -0.140625 -0.010070801 -0.234375 0.13867188 0.014343262 0.07861328 -0.0154418945 0.114746094 0.063964844 -0.12988281 0.12451172 0.040527344 -0.0032196045 0.171875 0.21582031 0.095703125 0.045410156 0.0036010742 -0.13574219 -0.16113281 0.015319824 -0.13085938 -0.2109375 -0.10986328 0.12402344 -0.014404297 -0.03930664 -0.037597656 0.025512695 -0.1015625 -0.033691406 0.24609375 -0.017700195 -0.09667969 0.125 0.012390137 0.4453125 -0.21777344 0.118652344 -0.10644531 0.10253906 -0.09716797 -0.0013656616 0.010620117 -0.08642578 0.07373047 -0.056884766 -0.19238281 -0.30273438 -0.13964844 0.06689453 -0.11425781 0.09033203 -0.047851562 -0.037353516 0.22949219 -0.020141602 0.057128906 -0.06933594 -0.09765625 -0.020263672 -0.12597656 -0.18164062 0.17871094 0.095703125 -0.118652344 0.010803223 -0.16796875 -0.10644531 -0.020507812 -0.008361816 0.06640625 -0.08105469 -0.18554688 -0.27929688 0.12792969 0.026977539 -0.20117188 -0.0099487305 0.00970459 -0.05517578 0.26367188 -0.07910156 0.19042969 0.0625 -0.12695312 -0.11767578 -0.07324219 -0.056884766 0.27539062 0.078125 -0.12207031 -0.037597656 0.020629883 0.09667969 -0.10253906 -0.007537842 -0.045410156 -0.015197754 0.026000977 -0.18554688 -0.034423828 0.31640625 0.0005722046 0.25390625 -0.16503906 -0.01361084 -0.10058594 0.079589844 -0.029296875 0.028564453 -0.07714844 0.07470703 0.03955078 -0.0053710938 0.064453125 -0.08203125 0.06738281 0.12597656 0.10449219 0.087890625 0.009765625 0.19238281 0.000333786 -0.18945312 0.10986328 0.03125 0.083496094 -0.03491211 0.09375 -0.15917969 0.068359375 0.04736328 -0.28320312 -0.02319336 0.13378906 -0.03930664 0.092285156 0.040771484 -0.029541016 -0.09082031 0.17089844 -0.075683594 -0.031982422 -0.09277344 -0.04711914 -0.08935547 0.10205078
9th 0.27148438 0.09033203 0.16015625 0.17675781 -0.072753906 -0.11621094 -0.5 -0.053955078 0.17578125 0.10253906 -0.09082031 0.030273438 -0.13574219 0.048095703 0.12158203 0.010620117 0.15332031 -0.15527344 -0.13574219 0.03857422 0.011230469 -0.18945312 -0.036132812 -0.064453125 -0.019042969 -0.24023438 0.16308594 0.053955078 0.095703125 0.20019531 -0.171875 -0.17089844 0.0703125 -0.041748047 0.037353516 -0.048339844 0.047851562 -0.080566406 -0.013183594 -0.05834961 -0.2265625 -0.03100586 0.04296875 0.20507812 0.15820312 0.25195312 -0.064453125 -0.111816406 -0.040527344 0.23535156 0.10498047 0.2578125 0.3046875 0.20996094 -0.007507324 0.18359375 -0.05517578 -0.104003906 -0.13183594 -0.118652344 -0.10644531 -0.29101562 -0.01965332 -0.23339844 -0.17089844 0.080078125 0.07128906 0.18261719 0.2734375 0.34179688 0.13183594 -0.17871094 0.20214844 -0.03112793 0.05126953 0.032958984 -0.104003906 -0.13183594 0.03540039 -0.012939453 0.07470703 -0.1484375 -0.032958984 -0.13867188 0.16503906 -0.23046875 -0.091796875 0.11767578 0.033691406 0.08984375 -0.033691406 -0.036621094 -0.028808594 -0.17871094 -0.15039062 0.119140625 -0.13574219 -0.044921875 0.055908203 0.18261719 0.010864258 -0.0859375 -0.2578125 -0.20410156 0.15429688 -0.036865234 -0.15722656 -0.28125 -0.12207031 -0.09375 0.22070312 0.03930664 -0.04321289 -0.07519531 0.06298828 0.0859375 -0.012451172 -0.13769531 0.18164062 0.24414062 -0.22167969 -0.12890625 -0.08691406 0.10058594 0.076660156 -0.25585938 -0.21875 -0.011291504 0.10839844 0.041259766 0.09814453 -0.07910156 -0.083984375 -0.08105469 -0.27734375 -0.057128906 -0.04296875 -0.15917969 -0.1640625 0.21777344 -0.043701172 0.122558594 0.125 -0.2734375 -0.14160156 0.24707031 0.15429688 0.103027344 0.041259766 -0.064453125 -0.13964844 0.028076172 -0.04663086 -0.115722656 0.021728516 0.17480469 0.123535156 -0.107910156 -0.22851562 -0.1640625 -0.24023438 -0.050048828 0.13183594 -0.109375 -0.03491211 0.01953125 0.32421875 0.06347656 -0.03540039 -0.00019645691 -0.17089844 -0.028930664 0.17773438 0.0546875 -0.15527344 0.06689453 0.118652344 -0.05493164 0.37695312 -0.0703125 -0.1875 -0.13964844 0.06298828 0.38085938 -0.22167969 0.03540039 0.23046875 0.15234375 0.46289062 0.10644531 0.027832031 0.19628906 -0.083496094 -0.07714844 0.265625 -0.16992188 0.16308594 0.06933594 0.19140625 -0.080078125 -0.04638672 0.045166016 -0.022949219 -0.30273438 -0.087890625 -0.072265625 -0.100097656 0.0625 -0.14453125 0.08691406 -0.17480469 0.28515625 -0.24121094 -0.40429688 -0.15625 -0.15332031 0.14550781 -0.107910156 0.11376953 -0.21191406 0.1328125 0.052978516 0.115234375 0.3125 -0.2265625 -0.11767578 -0.061767578 -0.016967773 -0.12792969 -0.040283203 0.07421875 0.06225586 -0.19042969 0.07421875 0.103027344 0.075683594 -0.020263672 -0.022338867 0.05029297 0.01940918 -0.07373047 0.20117188 -0.03881836 -0.19042969 -0.052001953 0.036865234 0.21777344 0.016723633 -0.017456055 -0.21972656 -0.08642578 -0.100097656 -0.13183594 -0.024658203 0.103027344 0.11425781 -0.080566406 -0.053466797 0.11816406 -0.049072266 -0.013916016 0.03466797 -0.07080078 0.06689453 0.08691406 -0.12060547 -0.037597656 -0.19140625 -0.15625 -0.08496094 -0.030761719 0.13964844 0.100097656 -0.06640625 0.110839844 -0.012329102 -0.125 -0.23632812 -0.27148438 0.20800781 0.020019531 0.02331543 -0.08203125 0.26367188 0.05102539 -0.23046875 -0.06689453 0.025878906 0.064941406 0.05078125 0.11230469 -0.109375 -0.14160156 0.14941406 -0.07861328 -0.10498047 -0.32617188 -0.13964844 0.072265625 0.07763672
abode 0.19726562 0.11767578 0.02758789 -0.037353516 -0.0042419434 0.1171875 0.21972656 -0.103027344 -0.011108398 0.18945312 0.17578125 -0.33203125 -0.2265625 0.084472656 0.0010604858 -0.005493164 0.12988281 -0.03564453 -0.16699219 0.25 0.099121094 -0.30078125 0.020996094 -0.19433594 -0.032470703 -0.26171875 -0.20214844 0.15332031 -0.24511719 -0.24511719 0.087402344 -0.034423828 -0.29882812 0.49609375 -0.3671875 -0.16210938 0.025146484 -0.31054688 0.04296875 -0.08496094 -0.103027344 0.028930664 0.103515625 0.19628906 0.115722656 -0.29882812 0.005554199 0.10205078 -0.08935547 -0.13085938 0.037109375 -0.04321289 0.4296875 -0.20605469 0.029174805 -0.15917969 -0.09765625 -0.053222656 -0.12158203 -0.36914062 0.18457031 -0.18066406 -0.012084961 -0.052978516 -0.15527344 -0.17675781 -0.22167969 0.19921875 -0.19335938 0.10498047 0.47265625 -0.029663086 0.14160156 -0.06933594 -0.036865234 -0.01977539 -0.22851562 -0.20800781 -0.08154297 -0.07714844 0.012817383 0.140625 -0.16015625 -0.059814453 0.080078125 0.17675781 0.26367188 -0.041259766 0.39453125 0.001914978 0.0065612793 -0.2578125 -0.10595703 -0.18066406 0.123535156 0.08691406 -0.056152344 -0.234375 0.23242188 -0.37695312 -0.08691406 0.072265625 0.30273438 0.08300781 0.13867188 -0.18457031 -0.053710938 0.2890625 -0.16503906 0.119628906 -0.03881836 0.02734375 0.23828125 0.16113281 0.21679688 -0.055419922 0.057128906 -0.12060547 -0.20605469 -0.020751953 0.07128906 -0.09667969 -0.14648438 0.140625 -0.20703125 0.2265625 -0.032958984 -0.43164062 -0.045410156 0.06542969 0.07470703 0.008911133 0.03466797 0.125 -0.099121094 -0.1953125 -0.080566406 0.21191406 0.23632812 0.026855469 -0.13574219 0.052490234 -0.119628906 0.10058594 0.21875 -0.100097656 -0.13769531 0.03149414 -0.16113281 0.27539062 0.01940918 -0.091796875 0.41015625 0.013549805 -0.19335938 -0.28515625 -0.10449219 0.035888672 0.042236328 -0.19238281 -0.16601562 0.15820312 0.20800781 -0.33203125 -0.21875 -0.16503906 0.2578125 -0.0069885254 -0.14257812 0.296875 -0.13867188 0.16601562 0.028076172 0.17871094 -0.11767578 0.22167969 0.03955078 -0.12011719 0.05517578 0.047607422 -0.28320312 -0.19140625 0.1328125 -0.25 0.21386719 -0.17578125 -0.02331543 0.2578125 0.21777344 0.059814453 -0.04736328 -0.17871094 0.05883789 0.34179688 -0.18945312 0.2734375 -0.20605469 0.32617188 0.10449219 0.088378906 -0.03540039 0.20214844 0.03881836 -0.2734375 0.1328125 -0.14941406 -0.09472656 0.3359375 0.22558594 -0.17089844 -0.390625 0.03515625 -0.29882812 -0.26367188 0.057128906 0.33398438 -0.32226562 0.19140625 -0.26953125 0.16308594 0.13574219 0.083496094 -0.16796875 0.1796875 0.071777344 0.22167969 -0.046875 0.265625 -0.20019531 0.12597656 0.056152344 -0.16699219 -0.22753906 -0.25390625 0.234375 0.30273438 0.028076172 -0.29101562 -0.171875 0.24121094 0.25585938 -0.13574219 0.067871094 -0.15234375 0.09326172 0.08886719 0.049316406 0.11279297 0.020385742 -0.020751953 -0.0028381348 0.26953125 0.30859375 0.41015625 -0.28710938 0.05517578 -0.296875 -0.061279297 -0.15332031 -0.016967773 0.08544922 0.018188477 -0.016723633 0.21679688 0.21582031 0.28710938 -0.19628906 -0.111816406 -0.1484375 -0.0063476562 0.049804688 0.02709961 0.32421875 0.21582031 0.21582031 0.06542969 -0.03857422 0.09375 -0.018432617 -0.1171875 0.15527344 -0.22949219 -0.14746094 0.099121094 0.375 0.07324219 0.0074768066 -0.24316406 -0.359375 0.104003906 -0.2421875 0.04638672 -0.12988281 0.0126953125 0.09863281 0.03515625 -0.11279297 -0.079589844 -0.044677734 0.21191406
accident 0.11376953 -0.095703125 0.08691406 -0.375 -0.04345703 0.004180908 0.072265625 -0.40625 0.18359375 0.08886719 0.14355469 -0.043945312 -0.19824219 -0.234375 -0.17675781 0.12988281 -0.083496094 0.15917969 0.44921875 -0.1796875 0.15234375 0.06640625 -0.17089844 -0.02758789 0.088378906 -0.041503906 -0.041992188 -0.12890625 0.26953125 -0.375 -0.100097656 -0.30273438 0.07519531 0.064453125 0.063964844 0.11035156 0.2734375 -0.1328125 -0.01361084 0.13867188 -0.04663086 -0.11035156 0.15429688 0.045410156 0.00011730194 -0.29296875 -0.110839844 0.11279297 0.15429688 0.15820312 0.11816406 0.23339844 0.052734375 0.056640625 0.25195312 0.123046875 0.080078125 0.20214844 -0.203125 -0.16796875 0.06933594 0.12695312 0.076660156 -0.30273438 0.24023438 0.114746094 -0.06738281 -0.037841797 -0.18359375 -0.028686523 -0.23925781 -0.1328125 -0.07421875 -0.034179688 -0.11035156 0.07470703 0.011169434 -0.32226562 -0.11767578 0.026123047 0.42773438 -0.18945312 0.21386719 -0.19433594 -0.35546875 -0.022338867 -0.24316406 0.046142578 -0.11767578 -0.014099121 0.036621094 -0.049804688 0.24804688 0.26367188 -0.04296875 0.17871094 0.056152344 0.078125 -0.049560547 -0.12988281 0.088378906 -0.12890625 0.14453125 -0.092285156 0.1171875 -0.020629883 0.0011444092 -0.103027344 -0.09472656 0.13378906 -0.123535156 -0.14257812 0.30273438 -0.20996094 0.060058594 -0.18847656 0.068359375 -0.09423828 -0.20019531 0.359375 -0.1015625 0.2578125 0.15429688 0.34765625 -0.0625 -0.08544922 -0.002166748 -0.30859375 0.16113281 0.16699219 -0.31054688 -0.1328125 -0.16796875 -0.10986328 0.17675781 -0.04638672 -0.057128906 -0.13769531 -0.37304688 0.35351562 0.0061950684 0.095703125 -0.052978516 0.16308594 -0.06201172 -0.0043945312 -0.53515625 0.028930664 -0.31640625 -0.41601562 -0.057373047 -0.25585938 0.03930664 -0.03100586 -0.0703125 0.020019531 0.08300781 0.36328125 -0.05126953 -0.32226562 0.00021839142 0.2578125 0.18066406 0.20898438 -0.099121094 0.001953125 0.03515625 -0.055419922 0.049316406 -0.12011719 0.0022735596 0.049316406 -0.055419922 -0.15136719 -0.07861328 -0.24609375 0.19433594 0.0052490234 0.10253906 -0.044433594 0.11035156 0.15136719 -0.19726562 -0.17480469 0.22167969 0.359375 0.060302734 0.16992188 0.068359375 0.25 0.140625 0.005554199 -0.30078125 -0.06640625 0.31835938 0.2578125 0.31445312 -0.38671875 -0.017333984 -0.078125 0.08642578 -0.122558594 -0.16894531 0.09326172 -0.13183594 -0.08642578 -0.10449219 0.020141602 0.21679688 -0.107421875 0.25585938 0.018798828 0.14355469 0.103515625 -0.1640625 0.1484375 0.051757812 -0.18066406 -0.18554688 -0.111328125 -0.28710938 -0.068847656 0.13085938 -0.012084961 0.1328125 -0.21875 0.13867188 0.16894531 -0.06640625 0.025024414 0.41015625 0.049804688 -0.118652344 -0.38085938 -0.09472656 -0.033935547 0.06201172 -0.087402344 0.11669922 0.080078125 -0.09375 -0.055908203 -0.17480469 -0.51171875 -0.03881836 0.24609375 -0.265625 -0.20214844 0.08154297 -0.67578125 0.1328125 -0.20800781 0.103515625 -0.032958984 0.15625 -0.036865234 0.1796875 0.28320312 -0.064941406 -0.12792969 -0.2890625 -0.10986328 0.37695312 0.44335938 0.041015625 0.28125 -0.014892578 -0.05102539 -0.234375 -0.14648438 -0.13183594 0.12597656 -0.14648438 -0.09326172 -0.22265625 0.07714844 0.36132812 0.19628906 -0.20800781 0.1328125 -0.050048828 -0.016845703 0.0625 0.19335938 -0.115234375 -0.076171875 0.078125 0.11816406 0.015319824 0.22558594 0.16210938 -0.171875 -0.056640625 0.15332031 -0.17285156 0.032714844 -0.13476562 -0.25585938 -0.084472656 -0.08935547
accordance -0.29101562 -0.15039062 0.14550781 0.012634277 0.11425781 0.20703125 -0.08642578 0.01171875 0.007171631 -0.034179688 -0.30664062 -0.17773438 -0.24511719 0.421875 -0.5078125 -0.19824219 -0.24121094 -0.15917969 0.11035156 -0.17480469 0.27148438 -0.22949219 -0.4453125 0.039794922 0.24511719 0.08984375 -0.15136719 0.08496094 0.008728027 -0.041503906 -0.040039062 -0.234375 0.09375 0.43359375 -0.013122559 -0.12158203 0.16308594 -0.18066406 0.037109375 -0.16894531 0.28515625 0.060058594 -0.004760742 0.075683594 0.25585938 -0.2734375 0.091308594 -0.016967773 0.1171875 -0.1875 -0.21972656 0.21972656 -0.0057678223 -0.16601562 -0.140625 -0.11230469 -0.27539062 -0.42578125 0.08984375 -0.26171875 -0.23828125 -0.11279297 0.12109375 0.2734375 -0.025024414 -0.12451172 -0.18457031 0.13476562 0.0065612793 -0.072753906 -0.032714844 -0.22363281 0.27734375 0.33203125 -0.12597656 -0.09326172 0.17480469 -0.19824219 0.20410156 0.10644531 -0.118652344 -0.080566406 -0.19335938 0.19433594 0.10107422 0.025146484 -0.12158203 0.11669922 0.08496094 0.34765625 0.234375 0.28320312 0.16601562 -0.17480469 0.25390625 -0.3125 -0.19921875 -0.103027344 -0.000869751 -0.06201172 0.28515625 -0.07714844 0.068847656 0.13964844 -0.67578125 -0.028686523 -0.25195312 0.24511719 -0.14550781 0.35546875 -0.20019531 -0.25390625 -0.26367188 0.24804688 0.10498047 0.15136719 -0.09082031 -0.19921875 -0.072753906 0.38867188 -0.011657715 -0.1953125 -0.08886719 0.024291992 0.20214844 0.115722656 -0.10253906 -0.390625 -0.10888672 0.25390625 -0.12988281 -0.19628906 -0.063964844 0.11035156 -0.41210938 0.01940918 -0.02709961 0.1875 0.09472656 -0.0859375 -0.22851562 0.47851562 -0.22460938 0.19042969 -0.19335938 0.35351562 -0.35351562 0.12695312 0.032714844 0.515625 0.11621094 -0.024658203 -0.021118164 0.024658203 0.10498047 -0.25 -0.09814453 0.016113281 0.059326172 0.10253906 0.15234375 0.30078125 0.08544922 -0.017211914 0.08886719 -0.14257812 -0.3046875 1.5974045e-05 0.049560547 -0.1875 -0.1796875 -0.203125 0.23242188 0.03955078 0.16015625 0.35742188 0.24121094 -0.15917969 -0.21875 -0.375 -0.15820312 -0.119140625 -0.19726562 -0.099609375 0.015625 -0.171875 0.099609375 0.110839844 -0.10253906 0.4453125 -0.41601562 0.55078125 -0.09765625 0.17773438 0.24511719 0.20703125 0.06201172 -0.05834961 -0.07470703 -0.078125 -0.15917969 0.12109375 0.076171875 -0.13574219 -0.203125 -0.2890625 -0.084472656 0.13378906 0.37890625 0.22070312 0.016235352 -0.037597656 0.21679688 0.23828125 -0.21972656 0.19824219 -0.13378906 0.34375 0.060791016 -0.1953125 -0.28125 0.03857422 -0.29882812 -0.080566406 0.13574219 -0.08496094 0.17285156 0.115234375 0.21484375 -0.2578125 0.07861328 0.115722656 -0.06298828 0.3046875 0.2578125 -0.16210938 -0.13085938 -0.019165039 0.24414062 0.16894531 -0.43945312 -0.22851562 0.15332031 -0.028198242 -0.07128906 -0.3125 -0.5390625 0.265625 -0.02368164 -0.091796875 0.032958984 0.19238281 -0.34570312 0.064453125 0.40234375 -0.08984375 -0.15820312 -0.24804688 0.39453125 0.09667969 0.122558594 -0.004180908 0.091308594 0.24707031 0.09667969 0.23046875 0.21972656 0.02355957 0.067871094 -0.007293701 0.053222656 -0.12988281 0.055419922 -0.032470703 -0.040527344 -0.09375 -0.30859375 0.1796875 -0.22265625 0.13183594 0.0134887695 0.28710938 -0.17871094 0.31445312 0.14648438 0.10449219 0.20117188 -0.21777344 0.0107421875 0.025390625 -0.16015625 -0.38671875 0.04272461 0.23242188 0.28515625 0.18945312 -0.40039062 0.07714844 -0.21289062 0.044433594
according 0.055419922 -0.19628906 -0.068359375 -0.23925781 0.047851562 -0.020629883 0.24023438 -0.13183594 0.20996094 -0.103027344 -0.19140625 -0.09277344 -0.010253906 0.21386719 -0.33398438 0.052978516 -0.007659912 0.0625 -0.17675781 0.020507812 -0.111816406 -0.06298828 -0.18164062 -0.060058594 0.078125 -0.0032196045 -0.03491211 0.16796875 -0.29492188 0.03173828 0.019042969 -0.10253906 -0.08105469 0.1640625 -0.15527344 0.01586914 -0.18652344 -0.16601562 -0.15136719 -0.015319824 0.007598877 -0.28515625 -0.14941406 -0.02758789 0.024414062 -0.14257812 0.00064468384 0.09765625 0.068359375 0.28125 0.076171875 -0.032958984 -0.0004005432 -0.28125 -0.045654297 0.24511719 -0.20507812 -0.09716797 0.011474609 0.09765625 -0.14550781 -0.029418945 -0.16308594 -0.012145996 0.012329102 0.12158203 -0.030395508 0.13671875 0.029296875 0.03149414 -0.08691406 0.06933594 0.18457031 0.09082031 0.05908203 0.1484375 -0.0014419556 0.23535156 0.15332031 -0.01550293 0.0024261475 -0.15917969 0.07470703 0.5 -0.25585938 0.021728516 -0.16210938 0.09326172 -0.17773438 -0.1640625 0.25976562 -0.07470703 0.044433594 -0.20996094 0.061279297 -0.048095703 0.05419922 0.08300781 -0.045166016 -0.09423828 0.23144531 -0.16113281 -0.06542969 0.0063171387 0.19140625 -0.0025024414 -0.17480469 -0.0138549805 -0.1875 -0.07910156 -0.011108398 -0.09716797 0.016479492 -0.13964844 -0.1953125 0.013000488 0.017089844 0.20605469 0.06933594 0.22363281 -0.3671875 0.14746094 -0.08886719 0.057373047 0.087890625 -0.10986328 -0.048095703 -0.14355469 -0.051513672 0.15234375 -0.028808594 -0.24316406 0.056396484 0.07421875 -0.08544922 -0.12597656 -0.07373047 -0.07421875 -0.04736328 -0.072753906 -0.00038528442 0.061279297 -0.23144531 0.09375 -0.061279297 0.12597656 0.08544922 -0.21972656 0.22851562 0.114746094 0.14550781 -0.028076172 0.055908203 0.099121094 0.16015625 -0.1875 -0.036376953 0.024780273 -0.14355469 0.008239746 0.11621094 0.05859375 -0.123535156 0.056640625 0.051513672 -0.025024414 0.14160156 0.018798828 0.05908203 -0.16503906 -0.059570312 -0.15039062 0.053466797 0.05029297 -0.25390625 -0.057617188 0.044677734 0.016113281 0.06347656 0.084472656 0.017700195 -0.14160156 -0.115722656 0.024291992 -0.039794922 0.114746094 -0.20703125 0.25390625 0.18457031 0.15625 0.12890625 -0.14648438 -0.14355469 -0.0067443848 -0.13574219 0.095214844 0.005584717 0.032958984 -0.17382812 -0.063964844 -0.004425049 -0.09277344 -0.06347656 0.07519531 -0.11425781 0.18359375 0.111328125 0.11669922 -0.09326172 0.0016784668 0.008239746 -0.07763672 -0.045410156 -0.092285156 -0.12109375 -0.12597656 0.17773438 0.17480469 0.045654297 0.23339844 0.087402344 -0.18554688 0.03173828 -0.12207031 0.109375 -0.17480469 0.012512207 0.2578125 0.080078125 -0.19921875 0.0038604736 -0.12792969 0.05102539 -0.084472656 0.007659912 -0.008239746 0.008483887 -0.21875 0.009033203 -0.030761719 0.052246094 0.030151367 -0.006011963 -0.12890625 0.19238281 0.12060547 0.017456055 0.018066406 0.10888672 -0.08642578 0.06201172 -0.04663086 -0.27929688 -0.020629883 0.12988281 -0.1796875 -0.140625 -0.16210938 0.060058594 -0.040771484 0.012512207 -0.08251953 0.18847656 0.119140625 0.19042969 0.25585938 -0.08886719 0.0028381348 0.19140625 0.060302734 0.14160156 -0.23144531 -0.05810547 -0.051513672 -0.08203125 -0.26171875 -0.14160156 -0.026367188 0.005432129 -0.11328125 -0.23730469 0.15722656 -0.17871094 0.09472656 0.10839844 0.06933594 -0.03955078 -0.022949219 0.025878906 -0.005126953 -0.07519531 -0.32226562 -0.020751953 0.20117188 0.115234375 -0.0625 -0.068847656 0.04736328 0.0625 0.14160156
account -0.025634766 -0.0046081543 0.030395508 -0.21484375 -0.12011719 0.19726562 0.16210938 -0.01361084 0.26757812 -0.040771484 0.043701172 -0.010375977 -0.092285156 0.022094727 0.0034484863 0.032470703 0.025390625 0.02758789 -0.03930664 0.0703125 0.17285156 -0.11035156 -0.008972168 -0.00340271 0.12011719 -0.06933594 -0.37109375 -0.0059509277 0.010803223 0.16601562 -0.36914062 -0.203125 -0.0067749023 0.15039062 -0.08886719 -0.22558594 0.103027344 -0.19140625 -0.027832031 0.052734375 0.16015625 -0.061279297 0.10498047 -0.0390625 0.040283203 -0.32421875 0.07910156 0.14453125 -0.14746094 -0.13867188 0.06591797 -0.16601562 -0.07128906 -0.15039062 0.061035156 0.092285156 -0.28125 0.010375977 0.11621094 -0.296875 -0.09667969 -0.095703125 0.12988281 0.13769531 -0.075683594 0.22363281 0.030639648 0.038085938 0.008605957 -0.1484375 -0.05908203 0.14355469 0.4375 -0.13964844 0.013122559 0.12109375 0.10107422 0.13183594 0.003036499 -0.041992188 0.09667969 -0.18847656 0.036132812 0.20800781 0.04663086 -0.01586914 -0.12792969 0.08203125 -0.14648438 -0.041748047 0.18847656 0.048583984 -0.096191406 -0.35742188 -0.16308594 -0.03540039 -0.2890625 0.0546875 0.26367188 -0.13085938 -0.09423828 -0.1015625 -0.1015625 -0.017578125 0.018920898 -0.34179688 -0.29101562 -0.08886719 0.15820312 0.125 0.06542969 -0.29101562 -0.30664062 -0.09033203 -0.04663086 0.16308594 -0.24511719 0.076660156 0.16308594 0.21777344 -0.20800781 -0.14648438 -0.118652344 0.1484375 0.16308594 0.15429688 0.023071289 0.22753906 -0.053222656 -0.07470703 -0.12695312 -0.1796875 -0.16796875 0.057128906 0.44335938 -0.056396484 -0.42773438 -0.10644531 -0.13476562 0.012939453 -0.06640625 0.14160156 0.052490234 0.020507812 -0.010375977 0.03857422 0.01953125 -0.03491211 -0.20117188 0.14355469 0.12792969 0.13183594 0.10498047 0.13378906 -0.004486084 -0.21191406 -0.16210938 0.11621094 -0.0046691895 0.16992188 0.013793945 0.0546875 0.040771484 0.0024261475 -0.032226562 0.0703125 0.06298828 0.026123047 -0.14453125 0.14257812 -0.083496094 0.21484375 -0.083496094 -0.13964844 -0.048095703 -0.140625 0.060058594 -0.17675781 -0.05053711 0.056152344 0.12695312 -0.09667969 -0.13183594 -0.055908203 -0.07910156 -0.45898438 0.061767578 0.19921875 -0.203125 0.22753906 -0.171875 -0.14453125 -0.171875 0.02758789 -0.22949219 0.19140625 -0.13574219 -0.042236328 0.14355469 -0.23925781 -0.064941406 0.25195312 -0.019165039 -0.040039062 0.21972656 0.13769531 -0.234375 -0.12890625 0.08105469 -0.0134887695 0.15234375 0.13964844 -0.052001953 0.29101562 -0.3203125 0.15332031 0.14746094 0.014587402 -0.13183594 -0.13574219 0.084472656 0.1953125 -0.072753906 -0.15917969 0.140625 0.19628906 0.10595703 -0.029663086 -0.28515625 0.14355469 0.12695312 0.014770508 0.026489258 0.028930664 0.119140625 -0.06591797 0.064453125 0.13085938 -0.12792969 -0.087402344 -0.045166016 0.13867188 0.29296875 -0.041503906 -0.04272461 0.078125 -0.15429688 0.17480469 0.02355957 0.037353516 -0.06982422 -0.063964844 -0.33007812 -0.13085938 -0.010498047 -0.032714844 0.16992188 0.16796875 -0.07910156 -0.0036315918 -0.050048828 0.0050354004 -0.140625 0.12451172 -0.16992188 0.23339844 -0.26953125 0.13476562 -0.17285156 -0.068847656 -0.055664062 0.12060547 -0.09716797 -0.01928711 0.07470703 -0.328125 -0.064941406 -0.030761719 -0.109375 0.0859375 0.16894531 -0.06738281 -0.41992188 -0.017700195 0.050048828 0.018188477 0.006011963 0.33203125 0.15722656 0.07910156 -0.0032653809 0.09814453 0.08886719 -0.20898438 -0.21191406 -0.27148438 0.21289062 -0.17089844 -0.18945312 -0.053710938
